#ifndef DEMO_FILE
#define DEMO_FILE

int number1 = 1;

double B1[] = {-3.98040513564153,
-6.10735822404883,
-5.73641254188024,
-1.10609245750332,
-4.94667126249482,
-1.85476369611530,
-5.15303690312627,
-4.24830389329600,
-4.18341640057346,
-7.04191559975441,
-6.83327767952325,
-3.32061174831379,
-2.51810603880260,
-1.34316690569260,
-5.09868740658736,
-2.70219649019184,
-5.51637881340446,
-4.62117652695144,
-4.16935853776675,
-5.95248061865099,
-3.95897662612403,
-4.67160119890108,
-3.87179720283936,
-6.60853180922248,
-3.86395916031295,
-3.70672156238065,
-4.73288852720071,
-5.87403108798176,
-2.38968232064008,
3.10575643013454,
-2.19325219225791,
-3.10155570003668,
-2.12763671670805,
-3.38510645711278,
-2.96919417808190,
-4.75705755616043,
-1.89088047860440,
-1.39228041069408,
-3.72012633718369,
-4.11041630094942,
-5.92067856557384,
-3.35025671603622,
-6.61407088893814,
-3.82306828159630,
-1.31671322331731,
-4.43183314961211,
-2.28188908003870,
-2.28460449403124,
-2.75165237291254,
-1.19157620494236,
-4.48147112617729,
-1.67649497823703,
-7.42480641083385,
-4.54174516320638,
-6.22407600755943,
-3.80210511805568,
-5.10895182838960,
-7.28081005399080,
-3.60104758607699,
-2.98458282242419,
-1.57349032812828,
-4.30857183014008,
-3.01936950542459,
-7.27767897434568,
-6.34031066801924,
-3.02532867928800,
-5.82345896517329,
-4.61673355018099,
-0.704165789777235,
-1.97753794460398,
-4.19860099074163,
-1.37729812399885,
-7.28222157791909,
-2.89933902774284,
-3.89542045139244,
-4.66799829214502,
-2.85691738571555,
-3.28366619383917,
-3.05698449654106,
-3.60868503399429,
-4.53068181994115,
-6.46027162199462,
-2.70670992588225,
-0.621696092560124,
-5.18561866323799,
-4.18075050068540,
-5.95251323521536,
-3.23059385409702,
-6.97746810609007,
-3.26771374818135,
-3.57588171069991,
-1.34540864463665,
-6.19696341686400,
-3.38413783568355,
-1.53478641310328,
-4.82251341715736,
-3.52172509218185,
-3.64384175629754,
-3.47081458714223,
-4.81437586643742,
-3.96857386584472,
-3.67069103162369,
-5.38250119211049,
-3.11830165804661,
-3.97057906352852,
-2.24350432623527,
-2.76128952913811,
-4.73928107271653,
-2.74288539504372,
-7.02464882004189,
-3.27585969403441,
-3.36083541068180,
-4.61988528332059,
-1.89442140491321,
-2.01733703604278,
-7.62467525027218,
-6.97798200419702,
-1.34531091356343,
-1.04875910930705,
-2.45772454332209,
-3.08119694474103,
-3.27544612435900,
-4.31815309853038,
1.02467526433732,
-2.09715959227355,
-4.69864882415927,
-5.02006307391695,
-5.68188687184441,
-5.83697598070031,
-3.09791741280906,
-2.73503490928499,
-4.87705238223140,
-4.47034578068727,
-0.939430693182773,
-1.53619416035660,
0.0406583745652566,
-4.50648327527213,
-3.02488997501855,
-4.69947313408456,
-6.89249267799008,
-4.02619537760378,
-2.70133697134478,
-5.02248193374182,
-1.30419845524587,
-4.09492794564358,
-6.01811425973145,
-5.11948831665920,
-9.99711333087228,
-3.56223052739630,
-2.60088742134446,
-4.49719924352334,
-4.61538933872437,
-1.84654788012122,
-3.50709236246462,
-5.74931291067256,
-8.47915079189103,
-2.10453265572398,
2.53769906238984,
-3.77406677370901,
-6.08490487663463,
-2.58704673188438,
-5.39820501898842,
-2.67628653813186,
-3.79998902992913,
-4.74562401646640,
-4.10535956406474,
-1.31092033126596,
-4.41289561806620,
-1.85471192437343,
-4.34094319169622,
-6.24923583955467,
-2.17740755642332,
-1.64174981521130,
-4.28584384938140,
-3.20086750698129,
-2.83037259768401,
-4.24493122846431,
-7.07033367078853,
-5.05995496548230,
-0.934191482511280,
-4.87950186169105,
-4.31312432372305,
-6.99467466534180,
-3.84009783496950,
-2.80305135610834,
-6.61444857971350,
-3.74385733460580,
-7.45399938692117,
-2.89784855812123,
-6.04744000943094,
-7.50477394620320,
-4.36070832558982,
-11.6394008563945,
2.93237520128656,
-5.35141737819367,
-3.60033674914307,
-4.95992020960127,
1.22143631794897,
-2.63912950886732,
-6.28485834980284};

double B2[] = {-1.92757394339426,
-3.41132876693622,
-1.94011922461394,
-1.78907097719399,
0.898267383977211,
-2.78457140208044,
-1.75572325275038,
-1.93480562846416,
-0.345831404846971,
-1.53360404887445,
-1.94448777938355,
-1.47148317684694,
1.74663348188326,
-0.199549734414054,
-3.49727248756042,
-2.45942069640151,
-1.73320404153747,
-3.82912968145343,
-0.650973623491026,
-1.92790408884735,
-1.10702685316082,
-1.82453913353628,
-1.89037683245619,
-1.88139972550246,
-2.40019633511607,
-1.53282196912458,
0.260245751071497,
-2.46112580874245,
-2.00226234522192,
-2.01217984569581,
-1.89743787335713,
-2.76766946161128,
-1.92929204309002,
0.244394760797868,
0.688382616593439,
-1.75993283808325,
-0.637133364746746,
-3.87214918110274,
-1.84211891670916,
-1.31100464152668,
-1.38048078644803,
-1.07096378183980,
-1.87112270002395,
-0.941328894864357,
-1.94033805491785,
-1.93873703404615,
-1.99928669484393,
-2.83633304840538,
-4.18850825718769,
-1.86872389411239,
-2.13506599417814,
-1.93710977587340,
-0.440482845080023,
-4.00162436901968,
-1.84200299333494,
-1.87496271216975,
-1.93976242313690,
-3.71273497067218,
-3.41585485006697,
-2.76392722491703,
-1.63303469904148,
-3.88240521920408,
-1.84597901413045,
-1.74376792731865,
-2.29769118611919,
-1.94169261971383,
-2.00764547538046,
-1.62347098014503,
-2.83274093484609,
1.07406363659600,
-1.93148422583646,
-0.178813799570826,
0.906021346664212,
-1.53301989594433,
0.0444431361787374,
-2.54260781621609,
-0.0274059895104063,
-2.78661997404558,
-2.84512372715217,
-1.88113552167138,
-0.384764217957974,
-1.85873777979614,
-1.78773409701989,
-1.67140347240272,
-1.94525411728677,
-1.80913120553841,
-1.83704986511916,
-1.86294343072118,
-2.03042158074007,
-1.93426140972929,
1.68107141949360,
-1.91316488676836,
-1.71931968015836,
-1.79383321817832,
-1.79492238590248,
-1.93441418284203,
-2.84075397766612,
-2.82614827757407,
0.0447335751101749,
-1.93959357669953,
-1.93940999004473,
-1.09545073488156,
-2.75449674936224,
-2.35505079731256,
-1.22677968588170,
-2.84393485474876,
-0.804176470242618,
-4.02455220426967,
-1.35965640488741,
-2.95372056877118,
-1.65286802804044,
-2.52707785965517,
-1.34436313294028,
2.32481208064853,
1.91200679667232,
-2.82707092636442,
-1.58335743870763,
-1.82483067639779,
-1.17035129494614,
-2.90810254931078,
-1.97179088698144,
0.259259636649685,
-1.85618822273458,
-1.41625191446405,
-1.91936810510652,
0.175193760781607,
-0.477909817964469,
-0.720874345639269,
-1.86595470454860,
-2.33912033109600,
-1.94020764257035,
-1.94139315662255,
-1.53664689186481,
-1.91223741827920,
-4.02009789904563,
-0.0668201759049015,
-2.77659425588002,
-2.67637662688386,
0.183871928081884,
-0.650011365114829,
-0.147265139441135,
-1.77142868418309,
-2.85601426346664,
-1.94042293196180,
-1.53196404971465,
-1.69126421115240,
-2.39098178687234,
-3.74781528751387,
-1.88412278337073,
0.638799340647441,
-1.19256139302882,
-1.10487486387595,
0.572817217621901,
-4.02274745768834,
-2.80338775505283,
-1.81115910841059,
-1.40926191259814,
-0.662216949669049,
-1.94182120342258,
-1.81267272633852,
-1.53229123447871,
-0.832584270396508,
-1.75356306523952,
-1.21590991320082,
-1.17225075221310,
-1.07463824595792,
0.182684986083412,
-1.74503129585615,
-2.55261503379737,
-1.53457411679166,
-2.85326791978552,
-1.94001542496864,
-2.29310595637574,
-1.15965901766148,
-1.93562806642424,
-2.83402232875790,
-4.02600968232216,
-1.99786531249135,
-1.53236684158449,
-1.89327247383515,
-2.07156461815903,
-2.85125717728370,
-2.92153176152374,
-2.23182912981663,
-1.17614304715479,
-2.24295247089779,
-1.53239481325718,
-1.25133291713676,
-1.88978800668449,
1.52163268335875,
-1.69813771553570,
-2.98363429670644,
-1.82146003602639,
-1.87383876379109,
1.22113483766964,
0.178424564790817,
-1.96193158127452,
-1.53208661176141,
-1.95924715786844,
-1.40432629924931};

double W3[10][200]={
{-0.04350629,-0.040676595,-0.015403595,-0.039633772,-0.058650483,-0.011408594,0.010469451,-0.016841356,-0.027172071,0.195989973,0.212659914,-0.047517756,-0.051204627,-0.047088057,-0.029200754,-0.025742871,-0.046028596,-0.029187172,-0.019568771,0.205400169,-0.009277406,-0.032414636,-0.021307544,-0.052949237,0.092248121,0.19576025,-0.012438767,-0.011312227,-0.049406065,-0.049117959,-0.019681986,-0.011240009,-0.016195745,-0.057848974,0.135550494,0.007857349,-0.023840882,-0.02999049,-0.017913441,-0.035891419,-0.04253638,-0.05133103,-0.024511114,-0.072304974,0.206064831,0.206582993,-0.049570688,0.082486906,-0.01648598,0.048526372,0.120982209,-0.014910642,-0.035209825,-0.017417423,-0.05137157,-0.022927722,0.207275881,0.010463292,-0.04029101,0.091585601,-0.067188262,-0.030135654,-0.026399733,0.205545026,-0.034761119,0.209638909,-0.037863916,-0.04296962,-0.012553311,-0.037987025,0.209133117,-0.049523243,-0.011187681,0.195665343,-0.061083739,-0.016321494,-0.028259338,-0.025185372,0.08152413,-0.06606759,-0.014466416,-0.042264275,-0.03625293,-0.002982428,0.200780532,0.107427248,-0.011062688,-0.067733279,-0.050159328,-0.047831617,-0.0157091,-0.019190505,-0.030792651,-0.015868341,-0.034183295,-0.017042352,0.082519067,-0.012980306,-0.052139688,0.207318165,0.206918606,0.048417563,-0.06025588,-0.037893913,-0.025342695,0.081150912,-0.058842828,-0.017362001,-0.054141642,-0.010414849,-0.046047888,-0.028005554,-0.028062463,-0.042260622,-0.008875495,0.083337503,-0.048522305,-0.031354057,0.015721227,0.090911429,0.094283245,-0.022728634,-0.018615423,-0.051031248,0.031989534,-0.023017181,-0.034763879,-0.059932847,-0.025006487,-0.017635402,0.211035863,0.209291457,0.195089448,-0.018303652,-0.017369547,0.107060869,-0.05986925,-0.031615907,0.126542204,-0.060711393,-0.022534886,-0.042105512,0.08059034,0.207940187,0.195571529,0.075465986,-0.0766643,-0.027705187,-0.02285909,0.080972446,-0.033831244,0.124987677,0.134677112,-0.016698867,0.083680969,-0.045301037,-0.044747917,-0.035326958,0.208748043,-0.032786568,0.195315825,0.008649857,-0.002709887,0.091105713,-0.045494996,-0.053866392,0.102667707,0.005740608,-0.016184358,0.195260184,-0.030921025,0.207822224,-0.050204121,0.024384983,-0.015116187,-0.0432891,-0.017083047,-0.010475787,0.195505763,-0.019083405,-0.047878001,0.08065229,-0.011242445,-0.024892613,-0.008743907,-0.053056537,0.195720371,-0.008616013,-0.022040783,-0.014755129,0.051017209,-0.007058327,-0.034422392,-0.019828439,0.123630953,0.100825996,0.080574894,0.195621017,-0.062385473,-0.050190812},
{-0.082214696,-0.086117137,-0.026963891,-0.002601504,-0.136244663,-0.014741598,-0.098241602,-0.033584588,0.365890425,-0.029505354,-0.034931797,-0.031041394,-0.155023405,-0.055691788,-0.08804763,-0.068940489,0.050641493,-0.016246554,0.333004359,-0.034163285,-0.107062222,0.008391113,-0.031255837,-0.083641602,-0.101850634,-0.03071966,-0.016970043,-0.064842617,-0.073725965,-0.073031101,-0.019242129,-0.014592634,-0.028527424,0.18558405,0.141524359,-0.097591632,0.310839361,-0.013968672,-0.066814778,-0.056431723,-0.028542383,0.177902005,-0.001571323,0.218573,-0.033877887,-0.033954621,-0.063607838,-0.002941356,-0.050118105,-0.151071412,-0.012242149,-0.030468286,0.248531229,-0.05282735,0.123135484,-0.031732071,-0.034030856,0.188284828,-0.084039882,0.007536603,-0.138412271,-0.013775423,-0.037924911,-0.034868279,-0.059410459,-0.034248494,0.227772401,0.081761781,-0.016642872,-0.059610571,-0.036182241,0.227564099,-0.015219941,-0.030579658,0.198523905,-0.067456617,-0.070544208,-0.119666621,-0.003684908,0.135084476,-0.025869626,-0.088109563,-0.026965219,-0.096033478,-0.033221568,0.119471583,0.150194865,0.081527701,0.131986016,-0.088435515,-0.035567321,-0.017366986,-0.061819763,-0.067595154,-0.04361623,-0.018140858,-0.00313279,-0.046509784,0.201731799,-0.034012013,-0.033954235,0.183925142,-0.111379982,-0.030364554,-0.051305365,-0.003202968,0.178854882,-0.052440047,-0.090289994,-0.043086925,0.077418671,-0.065290655,-0.033143852,-0.035308184,-0.019360199,-0.001901222,0.091120568,-0.042194556,-0.08588763,-0.096127643,-0.151252369,-0.104296222,-0.066546191,-0.090419782,-0.049874952,-0.099095104,0.253864487,0.272862208,-0.014703117,-0.06174083,-0.035753145,-0.034252663,-0.031546445,-0.029408133,-0.052484477,0.166496729,-0.11216508,-0.060639663,0.162338666,0.270185319,-0.050616981,-0.003577089,-0.004112181,-0.034077909,-0.030550269,-0.033844993,-0.119235489,0.132685597,-0.023241727,-0.027122842,0.235474271,-0.042300286,-0.054723546,-0.052696715,-0.000792817,-0.145146211,-0.034996575,0.24415851,-0.034175043,0.046416916,-0.031239086,-0.081536146,-0.096740384,0.011850609,-0.103393958,-0.072500933,0.124291779,-0.097350912,-0.06757956,-0.031344347,0.19354078,-0.034078483,-0.148570363,-0.092884957,-0.03313585,-0.082404834,-0.052431873,0.35512587,-0.030988816,-0.066330179,-0.163150295,-0.003936775,-0.044829025,-0.048392051,-0.10641987,-0.148940598,-0.030608153,-0.105066731,-0.016874778,-0.037186,0.205451733,-0.118928047,0.012267667,-0.095331596,-0.073589749,0.128957306,-0.148460191,-0.030529616,-0.134119946,-0.090430805},
{-0.010233772,-0.06173217,-0.031264793,-0.051676552,0.21726293,-0.056543238,-0.056500438,-0.003081081,-0.111639179,-0.032214159,-0.023393311,-0.046608783,0.228730108,-0.070096204,-0.015062716,-0.001188335,-0.054844034,-0.008226589,-0.090247405,-0.023425978,0.257379139,-0.05330253,-0.043155019,-0.085264518,-0.027937006,-0.031858138,-0.071454139,-0.005065533,-0.109837084,-0.109156571,-0.043009983,-0.056817077,-0.038088233,0.173559164,-0.118691436,-0.056773478,-0.092621009,-0.00839773,-0.005047113,-0.060191523,-0.05215503,-0.085199426,-0.048591128,-0.111859471,-0.023418891,-0.023454177,-0.073620308,-0.010924977,-0.012487342,-0.125952147,-0.02590453,-0.031205291,0.196889659,-0.012587583,-0.10688268,-0.045866201,-0.023437248,-0.084793,-0.060544501,-0.016904912,0.212498537,-0.008452881,-0.046139446,-0.027562373,-0.077786746,-0.02347582,-0.184608854,-0.040564515,-0.046432337,-0.113100635,-0.023420416,0.197034057,-0.080368282,-0.031907529,0.030846147,-0.004096636,-0.020828433,0.203930327,-0.010441338,-0.111726483,-0.03783861,-0.096279818,-0.052141215,-0.05821885,-0.023218439,0.195672474,0.013730911,-0.072156042,-0.119292275,-0.092309995,-0.073005352,-0.032324854,-0.094110067,-0.005369434,-0.046443684,-0.036968925,-0.010903914,-0.018064283,0.186766684,-0.023462501,-0.023459981,0.162146984,0.136655473,-0.055438553,-0.066143271,-0.010408615,0.129436349,-0.012574567,-0.08133801,-0.016274685,-0.071072808,-0.023836116,-0.056671107,-0.100516928,-0.083579443,-0.011410301,-0.087842244,-0.046326814,0.330310319,-0.022633789,-0.122177131,0.237495004,-0.004884859,-0.081773988,-0.016573509,0.232530919,0.19583562,-0.141935075,-0.047426754,-0.022848123,-0.023232237,-0.023434234,-0.031612003,-0.037533084,-0.01256444,0.195381755,0.142914449,-0.030674486,0.241418311,-0.145563648,-0.04168777,-0.052915616,-0.010075633,-0.023445285,-0.031945457,-0.016142169,0.204059494,-0.080325562,-0.045233879,-0.083289832,0.2076502,-0.060733749,-0.070774151,-0.01248082,-0.011507916,-0.095273771,-0.054445782,0.192437155,-0.023435991,-0.047456729,-0.031742825,0.337423515,-0.058364983,-0.015928148,0.182668939,-0.067426238,-0.096685751,-0.056913808,-0.004125573,-0.031693192,0.156516466,-0.023453322,0.245350231,0.332694699,-0.030726776,-0.002361141,-0.012597942,-0.077047059,-0.031795984,-0.004724107,0.228693178,-0.01006272,-0.01665344,-0.040282083,0.2578009,0.239430953,-0.031888936,0.258665586,-0.039847154,-0.075206799,-0.076107567,-0.019171224,-0.05046878,-0.069423441,-0.073171964,-0.09475202,-0.120884741,-0.031938844,0.223386748,-0.081773966},
{0.258436394,-0.018049833,-0.041596667,0.022281,-0.09366526,-0.095388883,0.121224232,-0.045830186,-0.03795603,-0.009712068,-0.022852385,0.194565068,-0.067729404,0.181531053,-0.057435074,-0.049790025,0.069562617,0.396564344,-0.030661778,-0.018306935,-0.027421429,-0.01574655,-0.040445332,0.158547758,0.302127851,-0.006765292,-0.015324553,-0.061253571,-0.06292053,-0.067843209,-0.049424145,-0.094833816,-0.040876401,-0.096130339,-0.069460382,0.121246908,-0.020935384,0.39856902,-0.057933806,-0.157160156,0.1611167,0.234406343,-0.039857751,0.17951059,-0.018518729,-0.018691685,0.170812188,-0.003851359,-0.017145183,-0.093968654,0.007912471,-0.04347552,-0.034935653,-0.019990301,0.07130106,-0.038131345,-0.018951452,-0.055888308,-0.023544925,-0.001515057,-0.118962749,0.39840869,-0.010973478,-0.023271769,0.166070746,-0.020034628,-0.087219806,0.128628058,-0.100464519,0.06949294,-0.025986447,-0.062616628,-0.011128416,-0.006784756,-0.106111714,-0.053029264,-0.065201844,-0.156407617,-0.004058939,0.016637424,-0.031186166,0.16335629,0.029372292,0.125710546,-0.01708622,-0.147838255,-0.098126581,0.193042161,-0.212347621,0.163126901,-0.028465849,-0.049496049,-0.064455798,-0.058233916,0.025432802,-0.038687589,-0.003723492,-0.02533212,-0.078885194,-0.019004865,-0.018857586,-0.046915392,-0.143861957,0.201629697,-0.161124394,-0.004320778,-0.130204373,-0.019419579,0.144553408,-0.018877556,0.117072929,-0.065867689,-0.080021752,-0.115501326,-0.011752893,-0.003803607,0.12461252,-0.004033751,-0.014407614,0.31375536,-0.112770714,-0.090441291,-0.057336868,0.142483294,-0.082381871,-0.083041642,-0.03304905,-0.058827267,-0.038705852,-0.07351316,-0.025176434,-0.019807908,-0.004395734,-0.045757036,-0.019501931,-0.121922867,-0.14580006,-0.060943558,-0.074729777,-0.041666573,-0.063713731,0.046075665,-0.004157138,-0.019250689,-0.006943818,-0.093349527,-0.116418787,-0.021987196,-0.037612441,-0.033985682,-0.044534439,0.160081908,0.08555233,-0.019545715,-0.004196092,0.099390968,0.17162036,-0.056901797,-0.019560752,-0.021498605,-0.005604288,-0.018354735,0.122734215,-0.105527582,-0.039142687,0.12604742,0.182557191,0.122308595,-0.052952968,-0.005083687,-0.051519218,-0.019215159,-0.067439875,-0.019391844,-0.041068867,0.330943726,-0.019279236,-0.0339259,-0.006136986,-0.056744479,-0.108165555,-0.004404148,-0.022056705,-0.061000517,-0.024880456,-0.070753974,-0.006827264,-0.021676566,-0.048479061,-0.028116804,-0.081655172,-0.055826788,-0.013073584,0.076829196,0.103063673,0.177014066,-0.10965617,-0.006962931,-0.094526546,0.138897106},
{-0.048521399,-0.007522948,0.116593922,0.063144218,0.074216515,-0.023223816,-0.05668834,0.115699346,-0.023957256,-0.004021979,-0.004820956,-0.041253552,0.089731116,0.236262099,-0.061215712,-0.07445958,0.051762711,-0.019948046,-0.05215374,-0.003523162,0.222991416,0.070585642,0.090444922,-0.073235046,-0.063862311,-0.003934452,-0.121781889,-0.063321207,0.165394015,0.166242948,0.092729352,-0.024722294,0.105884907,-0.042931071,-0.150978685,-0.056788112,-0.071196599,-0.020046596,-0.084755629,-0.039118723,-0.04886293,-0.074285167,0.081902635,-0.07096639,-0.003615078,-0.003705386,-0.06288192,-0.006794745,-0.031259741,0.112501905,-0.007547476,0.112301202,-0.076217828,-0.033672476,-0.195636866,0.087445929,-0.003824344,-0.111091402,-0.004648291,-0.008094396,0.077189166,-0.020180202,0.085389389,-0.009824475,-0.146696888,-0.004216801,0.146713942,0.032277234,-0.012969862,0.109865195,-0.004467395,-0.090762191,0.299993793,-0.003938412,-0.019959135,-0.066242398,0.114587045,-0.193805047,-0.006693435,-0.190599891,0.269400187,-0.068934133,0.068504058,-0.055003908,-0.002848997,-0.201800711,0.04184149,0.006723677,-0.148035099,-0.070245161,0.285129485,0.093192924,0.167832659,-0.081197385,0.074507773,0.103789144,-0.006805772,-0.037946856,-0.064300597,-0.003854201,-0.00376679,-0.192308062,-0.170732515,-0.042224194,-0.040734768,-0.006623195,0.07312751,-0.033086164,-0.065315822,-0.039845325,0.042896465,-0.018591369,-0.028966696,0.125799073,0.28951282,-0.00688597,0.033219357,0.074860305,-0.06227889,-0.071848203,0.07606977,0.165873559,-0.084450746,-0.066252872,-0.023924638,0.176340193,-0.071354051,-0.099958863,0.081414336,-0.019810953,-0.004747986,-0.004160022,-0.003989771,0.097199933,-0.033205174,-0.176390506,-0.170683786,-0.017192805,-0.134406668,-0.09643426,0.246861841,0.061486635,-0.006580711,-0.003949934,-0.003909273,-0.028483489,0.042542496,-0.043771028,0.087724774,-0.128022595,-0.075109131,-0.054650559,-0.127514709,-0.034564378,-0.006789325,0.127042386,-0.049126181,-0.065700757,-0.004083666,0.064428134,-0.003923294,-0.071720534,-0.05630036,-0.024225753,0.165560602,-0.057444478,-0.129179311,-0.056411093,-0.066043005,-0.003959625,-0.089848465,-0.003917,0.093727475,-0.054093991,0.115398516,-0.072946166,-0.033411673,-0.032919382,-0.003928696,-0.085403395,0.079495608,-0.00655743,-0.038379883,-0.037090947,0.224359582,0.071146246,-0.003943377,0.227947263,0.087240849,0.288912946,-0.070208481,-0.115408194,0.068225242,-0.053061152,-0.126495409,-0.132225838,0.079312927,-0.003917244,0.05069998,-0.065473201},
{0.21980339,0.103781182,-0.038863214,0.078521786,-0.094555623,-0.020918131,-0.057501254,-0.042001928,-0.057588608,-0.02290929,-0.019847327,-0.051787005,-0.106388601,-0.093222274,0.175971132,0.333407858,0.064623921,-0.048078679,0.079976236,-0.021487127,-0.069106995,0.083768103,0.044288853,-0.056472059,0.19752248,-0.021629243,-0.026158519,0.304078651,0.114881012,0.102281131,0.039837067,-0.019744137,-0.005330035,-0.08072945,-0.060800203,-0.057166252,0.141839678,-0.049293847,0.327894403,-0.017843493,-0.048443195,0.170398549,0.049816281,0.112614696,-0.021385538,-0.021326805,-0.059513224,-0.010762385,-0.056078103,0.116575412,-0.01572987,-0.013229962,-0.05981609,-0.050053806,-0.183895286,0.060191133,-0.02128616,0.142488405,0.10704948,-0.01493686,-0.084751185,-0.0492318,0.040841911,-0.020788789,-0.080112776,-0.020999171,0.073356329,0.027010516,-0.026129949,-0.056636111,-0.017572429,-0.05519349,-0.03000656,-0.021672605,-0.085901407,0.315082981,-0.037107041,-0.066060937,-0.010422553,-0.169727171,-0.059753314,-0.05283368,0.0811132,-0.056514479,-0.021580397,0.087769839,0.047996148,0.095410057,-0.145210557,-0.053778266,-0.048543595,0.027485669,-0.01042996,0.322268153,0.038742732,-0.011249022,-0.010754429,-0.057680048,-0.067300605,-0.021258961,-0.021318771,-0.12710913,-0.076292681,-0.043928257,-0.019715621,-0.010374936,-0.122715776,-0.051635863,-0.050727789,-0.051266733,0.039626132,-0.006046648,-0.076320143,-0.076590411,-0.032659978,-0.011145695,0.025198748,0.07616542,-0.011211408,0.200654093,0.127880072,-0.058937801,0.328189166,-0.049808272,-0.01308229,-0.056471492,-0.061473467,0.135693781,0.070057666,-0.007938606,-0.0183138,-0.021061253,-0.021016815,0.027570516,-0.051434553,-0.085362931,-0.07520357,-0.005188442,-0.055496607,0.134532832,-0.073208229,0.08149962,-0.010151379,-0.021217835,-0.021726847,-0.022801871,-0.091763299,-0.081814793,0.042655914,-0.047825636,-0.072301781,0.081029675,-0.078390508,-0.050370418,-0.011329075,0.138094964,-0.053271306,-0.072326798,-0.02111158,0.083270977,-0.02134324,-0.012800197,-0.05649448,-0.039567269,-0.091010252,-0.053325316,-0.0997771,-0.05704816,0.314865609,-0.02118883,-0.138135875,-0.021222293,-0.083301591,-0.014544078,-0.028732396,0.230161748,-0.051655895,-0.013315002,-0.021481136,0.329045196,0.12365372,-0.010150711,-0.055810543,-0.065682782,-0.067651595,-0.081630497,-0.021629529,-0.066643865,0.05474772,-0.049063746,0.201772581,0.243403265,0.086827747,-0.044909595,-0.076060761,-0.100717062,0.12689723,-0.021745849,-0.097157703,-0.048880706},
{-0.073515596,-0.053177492,-0.017989148,-0.05743825,-0.126190289,-0.092573595,0.18034443,-0.019604176,0.0433799,-0.019777261,-0.033673479,-0.034475629,-0.114414759,0.143411996,-0.056766613,-0.006274722,-0.084188197,-0.079873602,-0.070656463,-0.02932213,-0.033960188,-0.042451834,-0.02398072,0.187990553,-0.095428705,-0.022945492,-0.015552896,-0.005841614,0.035594778,0.036911862,-0.022802006,-0.089715626,-0.018833907,0.225883846,-0.050409711,0.179825465,-0.076175671,-0.078901274,-0.003955001,0.235361313,-0.035172895,-0.099045054,-0.030072593,-0.116114228,-0.030227009,-0.030471268,0.088013055,-0.012304205,-0.01785037,-0.034123992,-0.005877835,-0.01705516,-0.005610803,-0.015578057,0.063967284,-0.026570865,-0.030671354,-0.118129393,-0.061302772,-0.007347111,-0.134527967,-0.07836429,-0.03450853,-0.019452208,-0.123254492,-0.031687031,-0.05837468,-0.119705601,-0.104987065,-0.040232368,-0.033457678,0.112082948,0.027026107,-0.022832046,0.265186772,-0.005396105,0.266931976,-0.150453124,-0.012772003,0.070675657,0.083899773,0.207684186,-0.05382089,0.183088058,-0.028901195,-0.027142606,-0.070466947,-0.09166705,0.115677575,0.203556464,0.070767735,-0.022611909,0.075013011,-0.003849894,-0.053219228,-0.020138729,-0.012297762,0.031416354,0.195281067,-0.030685655,-0.030539816,-0.074814644,-0.150133484,-0.102834673,0.232144294,-0.012934084,0.043893322,-0.015921335,0.201287819,0.001266555,-0.10665499,0.355993724,0.201664137,-0.059184061,0.03287816,-0.011902131,-0.113127861,-0.040670326,-0.025903156,-0.094369999,-0.043537556,-0.072545504,-0.004055674,0.20097125,0.336087632,-0.072779376,-0.021799946,-0.08993104,-0.029417556,0.359912847,-0.034033309,-0.031501236,-0.024316024,-0.0203529,-0.015908248,0.127106456,-0.149263688,0.346246186,0.070026506,-0.093840278,0.168302991,-0.064330441,-0.013217758,-0.030920463,-0.022598955,0.321211374,-0.156414969,-0.046331558,-0.026386143,-0.021604271,0.084871981,0.014934258,-0.059722482,-0.016518842,-0.0126984,-0.04074536,0.008909932,0.093901448,-0.031284634,-0.050169304,-0.023487592,-0.012611163,0.181272643,0.314734235,-0.031556189,0.16424202,-0.091065391,0.180724395,-0.005472933,-0.023902549,-0.048082223,-0.030861254,-0.107058529,-0.024279015,-0.017042565,-0.076274381,-0.015947727,-0.061315995,-0.023226604,-0.004158293,-0.123982512,-0.01328486,0.014155665,0.143164312,-0.031836097,-0.114902339,-0.022915984,-0.030458078,-0.025067108,0.063472286,-0.053064366,-0.033696795,-0.045316152,0.204984459,-0.063779824,-0.090107092,-0.042300997,-0.022613562,-0.148996251,0.199773274},
{-0.065281703,-0.084437789,0.112667947,0.075613802,0.121579889,-0.053830871,-0.099441188,0.119812315,-0.069720775,-0.045487134,-0.046053956,-0.086543565,0.100696542,-0.125230354,-0.079380881,-0.049505847,0.057156976,-0.036241967,-0.080409045,-0.045832171,-0.164376044,0.080765582,0.102015569,-0.096428369,-0.040231036,-0.045312113,0.350043874,-0.038780481,-0.136951392,-0.130566015,0.101924456,-0.052345716,0.109697534,-0.101955899,0.280922478,-0.09838339,-0.0861738,-0.0392442,-0.049986634,-0.044031337,-0.077048418,-0.089599662,0.093015176,-0.124744342,-0.046049009,-0.046051577,-0.094058896,-0.021579204,-0.03462743,0.067795907,-0.031078975,0.112170386,-0.097009033,-0.037390653,0.10050888,0.095840776,-0.046161616,-0.098139174,-0.081418644,-0.030093186,0.111115357,-0.039639766,0.092433764,-0.041545438,0.243317459,-0.046341333,-0.153027366,0.028069397,-0.062990095,0.1823027,-0.044911663,-0.106337125,-0.104200481,-0.045328692,-0.095522646,-0.043876207,-0.027063618,0.163351757,-0.020726482,0.108100756,-0.103827735,-0.093176798,0.076570134,-0.100551523,-0.045323966,0.149056847,0.071165725,0.013921828,0.113421139,-0.093136313,-0.10334886,0.106806385,-0.112691003,-0.048416284,0.085155964,0.107865747,-0.021536518,-0.030684992,-0.10552391,-0.046135946,-0.046104747,0.208175213,0.184383997,-0.08047958,-0.024406942,-0.020742273,0.000275049,-0.037044553,-0.094664897,-0.032799965,0.038556363,-0.003175494,-0.047043205,0.128148933,-0.100009076,-0.022403769,0.027580614,0.089690418,-0.057267043,-0.065730519,0.05923438,-0.172483916,-0.050246319,-0.092556786,-0.020322889,-0.173938127,-0.096972124,-0.078763322,0.092786513,-0.003263297,-0.045221208,-0.046350619,-0.045254839,0.107660248,-0.037122695,0.044765775,0.181742663,-0.001630552,-0.112537473,-0.080294271,-0.086267925,0.071380353,-0.020071296,-0.046226794,-0.045296008,-0.030277505,0.134140083,-0.016410044,0.098792524,0.345151639,-0.114257939,-0.104501989,0.288647657,-0.035198101,-0.022587371,-0.082944442,-0.082540246,-0.117316769,-0.046307652,0.07523073,-0.045216998,-0.062436656,-0.09551598,-0.042115476,-0.160497988,-0.089056362,0.202772848,-0.099107517,-0.043994749,-0.045247928,-0.086470825,-0.046198176,0.070695158,-0.067416012,0.114586049,-0.046922016,-0.036218783,-0.074660839,-0.045260649,-0.050644259,-0.064646613,-0.020100517,-0.031506906,-0.041845664,-0.163304775,0.098880686,-0.045311417,-0.162672128,0.099514232,-0.103426036,-0.079375029,-0.067939208,0.07976863,-0.071151062,0.299239907,0.207900009,0.061527358,-0.045313317,0.131929261,-0.090707885},
{-0.105765163,0.085840771,-0.031703698,-0.030846397,0.168294139,0.359779322,0.125513102,-0.047787744,-0.03094229,-0.017490302,-0.01422239,0.187803177,0.158068232,-0.113632539,0.018912848,-0.007407985,-0.049970058,-0.149988094,-0.01419178,-0.015292843,-0.020357671,-0.044786299,-0.037670135,0.150440051,-0.196526262,-0.017856776,-0.048510538,-0.00472055,-0.031625953,-0.024291176,-0.043522409,0.357550131,-0.038159048,-0.144781797,-0.070195839,0.126671177,-0.019122547,-0.149686555,-0.000477101,0.228912597,0.215418176,-0.120014046,-0.036111539,0.0612457,-0.015072736,-0.015069741,0.176188694,-0.006341428,-0.046999398,-0.100554626,-0.01730458,-0.046672905,-0.086231117,-0.049721132,0.068638942,-0.036729814,-0.01510517,-0.057595805,0.090486525,-0.009892089,0.187688759,-0.149456141,-0.019631777,-0.014572668,0.16383151,-0.015065979,-0.068298136,-0.048976845,0.368512265,-0.004463584,-0.011063382,-0.113241428,-0.047585902,-0.017865097,-0.142788171,-0.008517631,-0.091702758,0.193982761,-0.00601145,0.089939206,-0.050327473,0.135664212,-0.032732407,0.129630427,-0.014458894,-0.175568281,-0.077078898,-0.080638467,0.180850824,0.142045274,-0.031476831,-0.049567471,-0.074632214,-0.000848344,0.001808957,-0.038635887,-0.006376472,-0.055025459,-0.147060849,-0.015098958,-0.015082217,-0.091563329,0.238141738,0.220640399,0.205295365,-0.005882273,-0.018849315,-0.049225345,0.142937044,-0.047646248,-0.048427062,-0.114924734,-0.066870465,0.240850598,-0.046253552,-0.006620168,-0.007910234,-0.026364542,-0.065574646,-0.192546497,-0.092353918,0.16430391,-0.000497378,0.141907768,-0.127551067,0.148621897,-0.081573181,-0.049796804,-0.04283614,-0.120141509,-0.012330385,-0.015106088,-0.018226561,-0.04620406,-0.049243035,-0.158107419,0.235578817,-0.110354204,-0.137182767,-0.056015083,-0.034859864,-0.039450152,-0.005744833,-0.015103173,-0.017822786,-0.130492644,0.211475997,-0.045291923,-0.033484321,-0.052881087,-0.114359311,-0.047923474,-0.086571576,-0.049462357,-0.006501773,-0.118640924,0.188140837,-0.108276614,-0.015113877,-0.056686649,-0.018009204,-0.06543547,0.130653879,-0.138784763,-0.058436499,0.162488814,-0.14049706,0.127072845,-0.008638434,-0.018107528,-0.07199673,-0.015115748,0.099584352,-0.05878453,-0.037813947,-0.172723597,-0.04971415,-0.013163084,-0.017938349,-0.000528851,0.13694632,-0.005685326,-0.050945009,-0.051741206,-0.030762719,0.112466154,-0.01784532,-0.043223474,-0.047355062,-0.031898309,-0.01736012,-0.042443765,-0.046533017,0.136388903,-0.074442422,-0.141003091,-0.087928488,-0.017826751,0.186339784,0.142615255},
{-0.049200942,0.16209212,-0.025476947,-0.05736449,-0.072047118,0.008849531,-0.069178312,-0.026780424,-0.050294303,-0.014872409,-0.012864455,-0.043140633,-0.082465276,-0.056243934,0.192225326,-0.050098072,-0.058716868,-0.008773595,-0.055091334,-0.014046462,-0.048808517,-0.05480867,-0.038934933,-0.048987607,-0.06606262,-0.014739181,-0.021852454,-0.048940968,0.148596946,0.148569817,-0.036808387,0.006460799,-0.029571811,-0.060649258,-0.037461157,-0.068897938,-0.0626129,-0.009039689,-0.041010613,-0.053605285,-0.043773373,-0.063232561,-0.044018406,-0.075954595,-0.01390002,-0.013857988,-0.031761177,-0.006987661,0.283051733,0.160271077,-0.013209197,-0.027453678,-0.050390865,0.289238684,0.110234933,-0.041519819,-0.013807644,0.184400546,0.158253921,-0.010338411,-0.044649396,-0.00917261,-0.043087083,-0.013659352,-0.051197627,-0.013569741,0.14155017,-0.045530414,0.014657649,-0.049630354,-0.012071212,-0.059007038,-0.027322521,-0.014756834,0.01680975,-0.050146474,-0.040811694,0.150313663,-0.006712927,0.117683659,-0.030030714,-0.065106355,-0.053646845,-0.069124557,-0.014140842,-0.10704842,-0.06819422,-0.078430333,0.133109403,-0.062991777,-0.019780394,-0.036927548,0.206085587,-0.040889359,-0.04818535,-0.030791181,-0.006987906,0.252807763,-0.068568629,-0.013805258,-0.013834556,-0.069954194,0.153475149,-0.029106438,-0.048666533,-0.006661688,-0.094974579,0.288709266,-0.052299769,0.258945628,-0.043367561,-0.030255552,0.215435482,-0.065437446,-0.019900615,-0.007264711,-0.044329239,-0.049772041,-0.023501355,-0.062064379,0.164624118,-0.046239144,-0.041555645,-0.053519036,-0.034365933,-0.049149805,-0.048714453,0.170589335,-0.046162515,-0.033020918,-0.012227183,-0.013617323,-0.01473099,-0.034872074,0.288833937,-0.099027867,0.152749788,-0.028006457,-0.085972135,0.169807486,-0.042275601,-0.058063694,-0.006479369,-0.013748221,-0.014778285,-0.041284939,-0.031721372,0.230951583,-0.040355296,-0.031392121,-0.073602732,-0.070923363,-0.031180087,0.287536138,-0.007278255,0.163523747,-0.049543146,-0.07464733,-0.013674676,-0.06074871,-0.014749301,-0.021178037,-0.068534688,-0.05154131,0.18130333,-0.059158642,-0.055084603,-0.069014788,-0.049873913,-0.014732812,0.16691704,-0.013760732,-0.052782455,-0.025685483,-0.026347965,-0.064184047,0.288340264,-0.038302759,-0.014748667,-0.041428527,-0.060965724,-0.006470052,0.257268081,0.227763651,-0.048560698,-0.052640205,-0.014750201,-0.048256218,-0.041838906,-0.012732287,-0.080470929,0.217068879,-0.057275535,-0.064497479,-0.038394488,-0.05589212,0.160917897,-0.014773155,-0.055170069,-0.053828214}};


double W1[200][784]= {
{0.000196044,8.99E-05,-4.80E-05,0.000218461,0.000114438,8.17E-05,2.36E-06,1.50E-06,0.00029816,-0.00038806,-9.08E-05,-0.000331847,0.000188252,-0.000278505,0.00160826,0.000453052,-0.000162093,0.000135463,0.000112455,8.08E-05,-4.54E-05,-0.000234432,0.000151255,-0.000128345,-3.25E-05,-0.000206257,-3.89E-05,-0.000122418,0.000155799,6.73E-05,-0.00016678,2.90E-05,-1.04E-05,-0.000103498,8.97E-05,-8.97E-05,4.14E-05,-0.00112316,-0.001406464,-0.00969449,-0.021883402,-0.041355297,-0.044012138,-0.032054284,-0.014994641,-0.005129809,-0.000321171,-0.036657176,-5.88E-05,0.000175918,-0.000240108,8.65E-05,5.91E-05,0.000204158,0.000197236,-5.48E-05,-0.000229149,0.000209104,0.000295227,-0.000999599,-0.00432807,-0.000637125,-0.000221931,-0.001017761,-0.002928511,-0.007104618,-0.041193114,-0.039962198,-0.069373476,-0.059154334,-0.052045484,0.007893297,-0.034902854,0.019905799,0.004780962,0.132827004,0.123189955,-0.003130017,-0.005933833,-0.000390581,1.96E-05,-9.81E-05,9.46E-05,-0.000196527,-0.000259781,-0.00028789,-0.002841724,-0.007195669,-0.00628151,-0.058289777,-0.095496846,-0.073240593,-0.066609953,-0.089879032,-0.077636605,-0.117293507,-0.222886498,-0.205765121,-0.042656469,0.199883985,0.15167241,-0.024833328,0.03375948,0.17759032,0.149699602,0.012627378,0.021972583,0.019348592,-0.007156231,-0.001368852,-0.000267068,4.05E-05,-0.000306512,-0.000142266,-0.000775385,-0.001441948,-0.008449204,-0.166044439,-0.103322375,-0.081009898,-0.17720143,-0.322647074,-0.405084543,-0.567347225,-0.762010084,-0.610396672,-0.132965277,0.200495224,0.097243599,0.105821639,0.148520134,0.20924004,0.215086853,0.082736014,0.034882965,0.034916611,-0.007396701,-0.026613822,-0.001406132,-7.74E-05,0.000295604,0.000497998,0.00065597,-0.006859166,-0.120640442,-0.426898187,-0.105303068,-0.044514023,-0.223306244,-0.496263054,-0.651042985,-0.569538781,-0.669327469,-0.207177061,0.651075998,0.730631722,0.903943702,0.758376168,0.252645685,0.02788873,0.224649481,0.037979478,-0.039205443,0.005344283,-0.024253814,-0.09969977,-0.011084998,-0.00012138,-0.000299066,0.007959677,0.011311135,0.010722161,-0.36870611,-0.739448375,-0.704667186,-0.576120473,-0.563751651,-0.532094954,-0.554631556,-0.296762343,-0.051743161,0.576618755,0.90426783,0.310471092,0.240710562,0.351239056,0.009315855,-0.142657842,-0.204639521,-0.352255263,-0.448352783,-0.177249105,0.028351913,0.097212089,-0.017186695,-0.006135824,-0.000194785,0.015440653,0.032230898,-0.020591789,-0.518870372,-1.100661912,-1.294031575,-1.08456319,-0.735257128,-0.407894175,-0.345075761,0.014953001,0.31741365,0.895557828,0.871997776,0.935149469,0.606631101,0.441052058,-0.045240915,-0.423109486,-1.016331624,-0.811513326,-0.342106355,-0.038557507,0.237226908,0.307931333,-0.039438634,-0.033939895,0.000129162,0.011261171,0.030392332,-0.223271814,-0.929244551,-1.360477067,-1.622466497,-1.40735863,-0.998347004,-0.634349336,-0.329307688,0.11866444,0.937161172,1.188680126,0.475183579,1.005354001,0.806897319,0.433231213,-0.034125436,0.105807073,-0.820262139,-0.270210933,-0.371870777,-0.006689254,0.504866163,0.314984467,-0.099403332,-0.031768747,0.000205512,0.005858856,-0.080601183,-0.33270345,-1.040559511,-1.692625976,-1.921120087,-1.128037,-0.756135038,-1.020474783,-0.890614503,0.411055108,0.766291494,0.397740852,0.146580911,0.045782327,-0.21041024,-0.668254896,-1.055214053,0.224955529,0.347041652,0.692138843,-0.132254047,0.272591589,0.81273981,0.493095245,-0.122553266,-0.007515015,0.000273887,0.009580305,-0.135056443,-0.684120998,-1.37645207,-1.803289864,-1.402377772,-0.122715915,-1.56863153,-2.81310905,-1.40710287,0.946018721,1.041073052,0.307462321,-0.867639054,0.113295885,0.331337971,-0.453175175,-1.737039501,-0.683934437,0.034763229,-0.310233785,0.239913507,0.43692999,0.711986877,0.547942454,-0.081605523,-0.003631594,0.000264646,0.009786066,0.028106051,-0.684130903,-1.652905883,-1.344774235,-0.51785919,0.283821033,-0.671151638,-1.172633989,-0.291869034,1.064033143,1.529422685,-0.107462769,-1.072654143,-0.148315563,1.320804187,0.273114033,-1.069012509,-0.231849004,-0.04883935,-0.193269853,0.5558149,0.057201366,0.494409877,0.515161886,-0.055031028,-0.001744898,0.000388098,0.032463955,0.049640636,-0.83103631,-1.241438057,-0.271605315,0.700488991,0.947216759,0.548352015,0.133719207,0.811798671,1.395647284,0.869578988,-0.579793701,-0.951041154,-0.017474542,0.932535009,0.573959617,0.535793711,-0.087627432,-0.656811445,0.310421907,0.774969514,0.052980463,-0.190370093,0.10946241,-0.061469633,-0.002781614,-0.001550243,0.035570594,0.230717353,0.038663822,0.197563316,1.463541682,1.171354609,2.018612845,1.752145704,1.008723643,1.186293729,-0.227497557,-0.278972741,-0.025962752,-0.678343268,-1.333265721,0.08545329,1.075599607,1.083114285,-0.200520981,-1.555355145,0.085326469,0.69778461,0.037862109,-0.69828694,-0.193804875,-0.050722286,-0.004961497,-0.001828499,0.019558145,0.30713588,1.303478199,1.089202072,1.624170269,1.537289943,1.937623831,1.240353423,1.116188564,0.058744584,-1.050019894,-0.602756179,-0.387949314,-0.907111327,-1.087709539,-0.551470226,0.475965234,0.480715229,-0.28437307,-1.101649265,-0.116160485,0.225283464,0.630579395,-0.388254505,0.086849658,-0.143176629,-0.009914149,-0.000330912,0.055874008,0.316444282,0.812626109,0.772306921,1.029631019,1.344425644,0.468752351,-0.786931039,-1.674545183,-1.550770525,-1.226750977,-0.883999791,0.4863952,-0.360960858,-0.947360718,-0.167326008,-0.310030098,-0.306137668,-0.672132037,-1.232087356,-1.284369061,-0.019762223,0.434998651,0.124531409,0.162242375,-0.101211046,-0.005937392,0.000104467,0.039554828,0.516667357,0.467495852,0.889596525,1.00290993,0.158516533,-0.450574931,-2.153050009,-2.434538947,-2.090214012,-1.017793286,-1.100485131,-0.433905289,-0.440073474,-0.166907642,0.140228451,0.296910454,0.322316665,-0.742024231,-1.598291317,-1.31722339,0.278733945,0.246734478,0.049087319,-0.323566572,-0.119260396,-0.01092098,0.000198494,0.056603287,0.51474626,0.458005504,0.934033665,0.57874073,-0.442389422,-1.177030845,-1.818490546,-2.183405076,-1.352874605,-0.27981046,-0.632132994,-0.478180966,-0.625913515,-0.765285264,-0.408917639,0.310488658,0.284355379,-0.556526254,-1.560159415,-0.503148824,0.161026486,0.268721766,-0.120839693,-0.608354135,-0.401700112,-0.026970311,0.00022808,0.072810531,0.392443163,0.711138958,0.604545164,0.372385115,-0.677785684,-1.641266476,-2.011214241,-1.522507756,-0.659309473,0.017407681,0.500971957,0.643733844,0.846034316,0.146766965,0.070334566,1.037105876,0.326454946,-0.214820598,-0.282323014,0.188309355,0.365247015,0.403931255,0.073190307,-0.4498737,-0.325525363,-0.03958588,-0.000146643,0.105726433,0.259201458,0.405965762,0.394420582,-0.302164336,-1.142580031,-1.34983793,-0.791167073,-0.894744123,-0.370471925,0.27298492,0.488945669,0.498300679,-0.445457281,-0.18859762,0.287686168,1.121536219,0.601397144,0.09904637,0.225909364,0.147807616,0.565901487,0.580828624,-0.133408599,-0.349811162,-0.238978972,-0.021662866,0.000101063,0.085894893,0.057974002,-0.052619018,0.448291809,-0.5443454,-0.858477321,-0.463705406,0.534013489,0.570468741,-0.038466434,0.232417288,0.527396593,0.169837429,0.011501133,-0.042855551,0.473755766,1.040272851,0.899993605,0.832640958,0.303435883,0.359931396,0.088084343,0.111429265,-0.14432398,-0.082466177,-0.15755753,-0.002681846,-0.000209499,0.146843836,0.0487582,0.257253601,0.408798908,-0.524343842,-1.051161868,-0.444255555,0.509179056,0.584881166,0.30623699,-0.001430787,0.14103603,-0.188248552,0.140953079,0.903372267,0.66142952,0.324776937,-0.244362644,-0.255637961,-0.191667797,-0.258862812,-0.005542667,0.02415004,0.058984998,0.256723689,-0.053340887,-0.027438748,-7.00E-05,0.170721407,0.251375231,0.159163564,0.09718511,-0.29605831,-0.278337932,-0.267796397,-0.095976959,-0.224590146,-0.206645865,-0.576066694,-0.222797418,-0.306294615,0.327214166,0.314603773,0.009702401,-0.077655294,-1.123318174,-0.947004268,-0.773840981,-0.471086337,-0.558873888,-0.302410109,0.095076923,0.394269995,-0.008313177,-0.018120401,-0.000109209,0.014410082,0.09419287,-0.054370653,-0.41949984,-0.046929788,-0.082463476,0.322562262,0.268209647,-0.121948606,-1.167435429,-1.10090998,-0.497004611,-0.095430229,-0.093624092,0.408075969,0.003004937,-0.02672881,-0.378012768,-0.369800336,-0.426090089,-0.376088927,-0.351095938,-0.26199347,-0.102959709,0.110966184,-0.000716559,-0.000435358,9.28E-05,0.000202123,-0.005907265,-0.128277037,-0.395542488,-0.343154945,-0.038829174,0.602637774,0.594071848,-0.355415844,-0.850880863,-0.807769282,-0.606368596,-0.395916798,-0.118914536,-0.189322615,-0.065086771,-0.233538801,-0.402504525,-0.231730333,-0.255087208,-0.335513241,-0.272180816,-0.217935095,-0.032457765,-0.001061022,-7.15E-05,0.000159956,-0.000297372,-0.000243597,-0.005293293,-0.010607338,-0.061903124,-0.158469595,-0.111080207,-0.079781504,-0.047185579,-0.072847059,-0.223110789,-0.36578704,-0.478367397,-0.602517978,-0.285598087,-0.137916488,-0.188234631,-0.301299585,-0.21067661,-0.149522546,-0.061322499,-0.072366145,-0.114460603,-0.056899782,0.003131599,0.00016241,-0.000268223,0.000136753,-8.80E-05,-0.000123441,0.000247464,-5.08E-05,-0.007206474,-0.019040322,0.017273355,0.105068496,0.013400019,-0.070276234,-0.103128094,-0.190648557,-0.326398208,-0.252157296,-0.193923,-0.252729988,-0.233560153,-0.114635476,-0.04233828,-0.046019617,-0.008347383,-0.003274925,0.000607935,-0.000237852,0.00028895,0.000221791,0.00022925,-0.000202684,-1.42E-05,0.000205038,-0.00021722,-0.000160195,0.000372853,0.000222884,-0.005130417,-0.00551004,-0.010674071,-0.020437118,-0.017062093,-0.012623121,-0.024750665,-0.045837181,-0.005026232,-0.005525002,-0.019612652,-0.025552394,-0.013469122,-0.009697928,0.000122324,-9.22E-05,-0.000270694,-0.000145821,0.000234656,-0.000187102,6.35E-05,0.000221125},
{0.000252771,-7.56E-05,-0.000252757,3.77E-05,-0.000229178,-9.03E-05,-6.48E-06,6.98E-05,-0.006169629,-0.000112263,0.000337085,0.000213965,-0.000194281,-9.47E-05,-7.72E-06,-0.000114806,-7.08E-05,-0.000228338,0.003638929,0.000319882,0.000283655,-6.88E-05,0.000226528,-0.000294722,9.42E-05,0.000152716,-0.0001116,6.69E-05,-7.98E-06,0.000169655,0.000149393,3.17E-05,6.24E-05,-0.00018356,-0.000319163,-0.000898839,-0.000643778,0.013774762,0.002178925,-0.003267758,0.000506933,0.00056082,-7.43E-05,0.000225657,-7.26E-05,0.000215135,-0.000156815,0.002243563,-0.000277794,-0.000276485,0.000290578,0.000126237,2.19E-05,6.43E-05,0.000128021,-0.000301928,0.000162407,-7.22E-05,-0.000307142,0.000307872,0.000147542,0.000332332,0.018789312,0.070536702,0.027343509,-0.007920004,0.020219125,0.011942754,0.027047548,0.020504478,0.00346222,-0.020546269,-0.050686746,-0.053988457,-0.00314657,-0.001906332,-0.018427133,-0.014601708,-0.008340917,-0.010759428,-0.001704162,-0.000428376,7.03E-05,-3.17E-06,0.000211242,0.000204031,-0.000342966,-0.000177386,-0.000169025,0.001310564,0.010863828,0.046632781,0.038852107,-0.016964189,-0.02601771,0.029539532,0.03637125,0.026524442,0.006395823,-0.044659877,-0.076637634,-0.09099319,-0.08813648,-0.073780792,-0.110722408,-0.083807489,-0.062000212,-0.114941348,-0.042631512,0.03749666,0.001458353,2.81E-05,-2.20E-05,-4.41E-05,-0.000216302,-0.000421282,-0.001068435,-0.003417248,-0.053202903,-0.175259144,-0.267360561,-0.273326217,-0.136051061,-0.026310906,-0.040703421,-0.013805381,0.053327722,-0.03371131,-0.093353857,-0.203506939,-0.319057375,-0.278913165,-0.235315933,-0.1654054,-0.078279256,-0.213812237,0.07161631,0.319215967,0.049508629,0.000261058,-0.000260881,0.000164572,-0.000127031,-0.001578519,-0.008076915,0.056957787,-0.051228949,-0.377655418,-0.415629377,-0.500324572,-0.48936397,-0.365074096,-0.401769088,-0.329539801,-0.111946836,-0.286238001,-0.334612837,-0.371810883,-0.589349554,-0.681993427,-0.422957306,0.022807894,0.061636649,0.185522376,0.67653005,0.785021509,0.176706003,0.001887678,-3.92E-05,-6.00E-06,-0.000324983,-0.003241553,-0.012699235,0.034805321,-0.10608397,-0.362573123,-0.408629335,-0.227916882,-0.216694099,-0.309077532,-0.303694447,-0.273209245,-0.837915153,-0.766431566,-0.832258427,-0.73735173,-0.881202766,-0.804361781,-0.714257932,-0.740503589,0.143028666,0.758151961,1.02844817,0.556878752,0.229930013,0.004211269,-0.000278046,-0.000432028,-0.002096463,-0.02353317,-0.108109432,-0.050584233,-0.310807516,-0.481906175,-0.397054749,-0.305641162,-0.456848704,-0.159709218,-0.141519844,-0.238761922,-0.293448368,-0.348537475,-1.034552755,-1.019565059,-0.697644936,-0.938235799,-1.212674173,-0.78018385,0.197539247,1.005706284,1.085215389,0.265975989,0.197654754,0.006868797,1.91E-05,-0.00139235,-0.004882868,-0.101725264,-0.104921477,0.049650143,-0.199495355,-0.515557164,-0.338240084,-0.119987481,-0.03978906,0.682461204,-0.027862853,-0.655525719,-0.262178444,-0.515761068,-0.589431597,-0.70391526,-0.865667248,-1.150782644,-1.214408459,-0.887991629,0.023999278,0.282555349,0.559756234,0.34644682,0.18065298,0.010292989,-0.000245579,-0.002099096,-0.008554774,-0.052668019,-0.126173657,0.033968342,-0.189935799,-0.194512403,-0.219852742,0.048627051,0.558773171,0.501350327,-0.708847627,-0.413346253,-0.378088364,-0.499465635,0.07279839,0.086566107,-0.722406518,-0.512908032,-0.850378685,-0.16506565,0.217767718,0.172207467,0.248863273,0.708512446,0.219585154,0.009934604,-0.000209738,-0.003689021,-0.017578432,-0.065746235,-0.29969256,-0.308894334,-0.2471399,-0.467386715,-0.662347999,-0.029638855,0.558479281,0.026856329,-1.133567183,-0.807143737,-0.864383112,-0.379116021,0.363463283,0.2284956,-0.461645643,-0.515857624,-0.094699585,0.771152491,0.277218477,-0.012176592,-0.231515478,0.515558136,0.03655082,0.049277638,0.000104956,-0.006126104,-0.027511032,-0.11555491,-0.407694672,-0.46896819,-0.00851765,-0.792355902,-0.188289624,0.023268618,-0.059603099,-0.738028848,-1.808472153,-1.463892353,-0.521146539,0.436849998,0.705284128,0.478632849,0.143565266,0.34389836,0.904434366,0.710099704,-0.131786066,0.53149453,0.190362719,0.690000033,-0.084691997,0.007313662,-0.000118841,-0.009956446,-0.032992576,-0.152764235,-0.416670021,-0.480743758,-0.029830263,-0.293481812,-0.458117283,-0.719463166,-1.161538092,-1.30952056,-1.320079314,-1.225763711,0.402744204,0.772537533,0.947600959,1.168050157,0.909401435,1.140653622,1.337582125,0.075304454,-0.288226354,0.290211671,0.162859726,0.298244132,-0.005099257,0.001527862,-2.43E-05,-0.004648072,-0.048366532,-0.217650121,-0.504555884,-0.644517437,-0.359296479,-0.187133889,-0.591987427,-0.433054419,-0.788051425,-0.367168721,0.403838497,0.756693818,0.865006458,0.402472421,1.668383438,1.648057084,0.760607675,-0.654865187,-1.245721608,-1.558688169,-1.104113354,-0.294465474,-0.60134202,-0.300768995,-0.016314834,0.005520928,-0.000383491,-0.014671562,-0.05485274,-0.260696169,-0.595867365,-0.310880742,-0.430298446,-0.239119819,-0.036129669,-0.215963155,-0.933352691,0.063590865,1.173868454,1.610808605,1.191710906,0.95535818,0.812969992,-0.375985322,-2.011818648,-2.714448858,-2.145530865,-1.698306229,-0.614661714,-0.726231262,-1.15685016,-0.796795892,-0.152483009,0.002756543,0.000108878,-0.038325371,-0.075701952,-0.265416532,-0.413227318,-0.403141996,-0.480315945,-0.489283647,-0.006593197,-0.100255164,0.077850438,0.25412836,0.987225187,1.0185907,1.037652794,0.912710169,-0.073128199,-0.363236001,-1.245904606,-1.917596268,-1.66857717,-1.174576771,-0.953300317,-1.440020461,-1.797047736,-0.998251169,-0.0459981,0.000602134,2.85E-05,-0.061958356,-0.115748144,-0.375085324,-0.040439557,-0.425181158,-0.11963434,0.258706293,0.08780885,0.753255068,1.093846921,0.65822916,0.303792124,0.679816485,0.380067387,0.546098224,0.952177477,0.021667329,-0.907750412,-1.248924051,-1.461199085,-1.138555977,-0.991510943,-1.629765935,-1.889982122,-0.711670505,-0.061132291,0.0004717,-5.18E-05,-0.0234375,-0.118805114,-0.382210557,-0.412068501,-0.849722458,-0.061272723,0.558621327,0.543009815,0.631016935,0.83931732,0.33125017,-0.020071479,-0.108170564,0.094056331,0.972281355,-0.262778577,-0.93004011,-1.120257268,-1.129287924,-1.199792954,-1.095697055,-1.105317165,-1.544752146,-1.45333506,-0.487542959,-0.031266407,-0.000184415,9.91E-05,-0.001875316,-0.058046871,-0.22473589,-0.171663336,-0.785328346,-0.292894276,-0.107275172,0.052425086,0.251319387,0.092811144,-0.10682829,0.057549772,0.142385221,0.872576612,0.170392972,-1.164529761,-0.525319476,-0.522478794,-0.904325017,-1.198197797,-1.081194138,-1.242802434,-1.272592777,-0.953359353,-0.351612108,-0.017611754,-0.003112582,0.000167376,-0.001626831,-0.038816523,0.02970735,0.145862885,-0.34501489,0.18475749,0.577137575,0.431238095,0.318628969,0.603470146,0.28086472,0.050899653,0.579094558,1.015727821,-0.38702634,-0.986760185,-0.495699256,-0.407502678,-0.960682054,-1.0473387,-0.981838897,-0.975152528,-0.913504079,-0.539797581,-0.234964013,-0.013397075,0.00081533,-2.21E-05,-0.003636783,-0.029098518,0.004890473,0.045061404,-0.673962217,-0.193074369,-0.044420616,-0.434343772,-0.228311676,0.254625621,0.089158096,0.328044121,0.574211132,0.253859762,-0.290071415,-0.828890217,-0.148842774,-0.161554757,-0.579836366,-0.595103737,-0.603187073,-0.712710227,-0.672937105,-0.443495853,-0.142373151,-0.00551255,-0.001106893,-4.22E-05,-0.023747244,-0.029669214,-0.128376412,0.38178633,-0.118948393,0.232625147,-0.370411869,-0.600097087,-0.401080066,-0.160907864,0.307281747,0.364657286,0.063239819,-0.030402377,-0.014142002,-0.56835499,-0.120671394,-0.315588144,-0.722808666,-0.427368547,-0.361803429,-0.297584598,-0.286580662,-0.173382763,-0.029375286,-0.001085855,2.72E-05,-0.000295753,-0.029017713,-0.047527238,0.038445375,0.32679828,0.159480195,0.293282337,-0.389139212,-0.576810013,-0.716509757,-0.438171396,-0.344887601,-0.291687074,-0.391956593,-0.154838503,-0.10920074,-0.579446633,-0.084490503,-0.456488709,-0.832597269,-0.430568011,-0.287843331,-0.189099908,-0.064204481,0.003709354,0.03855272,0.00226676,0.000308077,0.000153364,-0.00234272,-0.018215624,0.005128313,0.140104669,0.099044316,0.069133371,0.033050463,-0.521685383,-0.704554461,-0.598285818,-0.353574266,-0.166121654,0.103578278,0.117524017,-0.20302786,-0.495521531,0.109181261,-0.307337105,-0.775206607,-0.320501756,-0.142770712,-0.051858903,-0.003469831,0.012911645,0.016869323,-0.000299791,5.10E-05,-0.000195995,0.000279934,-0.002482127,-0.015650568,-0.0339383,0.002538369,-0.210316389,-0.667717623,-0.551139461,-0.296754332,-0.080859683,-0.149358035,-0.033053536,0.420972507,-0.04855269,-0.321005482,-0.515179358,0.19655355,-0.181537875,-0.43986841,-0.171837811,-0.06679551,-0.030398743,0.018904932,-0.015015404,0.000984136,-0.000159386,0.000277464,0.000263823,-0.000205017,-0.000243465,-0.008266493,-0.058714724,-0.17234195,-0.578352489,-0.792519318,-0.376601915,-0.210579148,0.072958778,-0.052458808,0.092944596,0.241000079,-0.066855027,-0.302979139,-0.349690359,0.249291853,0.049747829,-0.066388077,-0.037215151,0.001226386,-0.004744814,-0.005020699,-0.004913199,-0.000153069,-0.000153474,0.000189948,3.78E-05,-0.000101644,-0.000101639,-0.015963795,-0.027087898,-0.164443762,-0.071082987,0.034623295,-0.067687599,0.017555796,0.029597978,-0.025774011,-0.005034294,0.004521986,-0.036508706,-0.060836582,-0.122948298,0.002397754,0.094127534,0.003859298,0.011170681,-0.010899072,0.006600798,0.040255682,-0.000524837,-0.000291062,0.000191486,0.000256953,9.24E-06,-0.000162845,-9.75E-05,-9.22E-05,-0.022657978,-0.033620406,-0.035189579,-0.01899259,-0.010080045,0.193093082,0.051782642,0.008052177,0.025717968,-0.002323441,4.02E-05,-0.000272185,-0.000662651,-0.002663999,0.000572645,0.000384776,0.000329448,8.82E-05,-4.99E-05,-0.000310179,0.000292846,0.000240924,-0.000105841,0.00026762},
{-0.000232353,0.000194086,6.14E-05,0.000267606,0.000138737,0.000309587,0.000234866,0.000198666,0.002186683,-0.000325689,-0.000414922,-1.74E-05,-0.00023874,0.000285862,0.000271608,0.000302632,-4.35E-05,-3.38E-05,-0.000921443,0.00012783,0.000139685,0.000186291,-7.39E-05,-0.000253332,-0.00020587,-1.42E-05,-0.000227952,-0.000137723,-7.18E-05,-0.0002764,0.000242306,0.000121178,-0.000311684,-3.52E-06,-0.000124328,-0.006262488,-0.002631356,-0.001466489,0.000106053,0.00046854,-0.000500515,0.000281896,-0.000141058,6.32E-05,-0.000335947,5.83E-06,9.15E-05,0.000875232,0.003821284,-0.000436718,0.000246712,0.000224838,-0.000103679,0.000197986,4.77E-05,0.000156144,7.30E-05,-0.000305536,-0.000209357,-0.003213514,-0.011858269,-0.000883147,-9.79E-05,-0.000811619,0.000134417,-0.003630682,-0.005447529,-0.002405686,-0.002795749,-0.002903864,-0.00086162,-0.001951403,-0.012696856,-0.015541484,-0.010555535,-0.014666874,-0.02543258,-0.033249953,-0.011917504,-0.001841964,4.30E-05,0.000151545,0.000232834,-0.000102505,-9.31E-05,-0.000293849,0.00030695,-0.00015349,-0.003377083,0.004953173,-0.000767736,-0.003276288,-0.004320823,-0.012864624,-0.016953774,-0.018562478,-0.012389076,-0.009174481,-0.008111785,-0.110884948,-0.15848304,-0.001844893,-0.076851389,-0.226054416,-0.240627542,-0.138935798,-0.098997456,-0.045378836,-0.009189224,-0.0024231,-0.000282352,0.000295214,-0.000238726,-2.79E-05,0.00122136,0.005868722,-0.000666089,-0.002913582,-0.005992603,-0.016835844,-0.027804198,-0.032034936,-0.03611821,-0.018559004,-0.002378229,-0.064632486,-0.077646173,-0.202652428,-0.131173048,0.020579654,0.133411674,0.113067739,-0.189299616,-0.28140934,-0.223022579,-0.171084736,-0.139080276,-0.094444274,-0.009814106,0.000229011,-4.48E-05,-0.000239944,-0.000153345,0.004165265,0.022232155,0.055264705,0.024092581,-0.028086469,-0.03065608,-0.044498037,-0.049759862,-0.000815982,0.012684556,-0.077627757,-0.191156452,-0.585732155,-0.268887025,-0.062114575,-0.128493192,0.119568598,-0.012988973,-0.249870831,-0.211210928,-0.151818932,-0.148019019,-0.16084012,-0.015827965,-0.000249031,-0.000278689,0.00014775,0.000303688,0.009202015,0.027594304,0.010358393,0.001538752,-0.06178757,-0.053673937,-0.074985284,-0.121165,-0.013492982,-0.004657766,-0.077116013,-0.495877358,-0.585713512,-0.159167711,0.074230452,0.154766384,0.430138363,0.49787094,-0.097078081,-0.088017986,-0.075029181,-0.351571608,-0.292394492,-0.013429499,-0.000651244,0.000267838,-2.29E-05,-0.003089071,0.002725131,-0.027474937,-0.049817581,0.012388983,0.064600758,-0.018449308,-0.022998134,-0.086256106,-0.117642447,-0.134874633,-0.12084256,-0.281457943,-0.056483646,-0.070786308,0.254973581,0.156287956,0.120906226,0.177361152,-0.019389506,-0.305249579,0.031419759,-0.17658324,-0.290351824,-0.014600817,-0.001396559,-7.60E-05,-0.002020566,-0.002487308,-0.058210008,-0.154137655,-0.216445237,0.012871348,-0.057468543,-0.17456195,-0.241441788,-0.227086837,-0.26156701,-0.468953067,-0.227306727,-0.037178317,-0.043942529,-0.42547943,-0.095211061,-0.38370122,-0.459672922,-0.338515017,-0.074077324,-0.066201503,0.331280302,0.182042457,0.068477651,-0.056844109,-0.001318529,-9.63E-05,-0.002279472,-0.018978212,-0.183755838,-0.370701171,-0.428345996,-0.342545026,-0.327754812,-0.433530051,-0.44857157,-0.590744995,-0.725727526,-0.787908076,-0.447227076,-0.110318158,-0.430756991,-0.749670655,-0.394258337,-0.305365533,-0.618991755,-0.441984238,0.050216064,0.622608883,0.740814842,0.409608749,0.082581875,-0.054369788,3.81E-05,0.000309987,-0.002670924,-0.04790357,-0.281728053,-0.552883898,-0.670173014,-0.711356543,-0.673835978,-0.83985381,-1.118981128,-1.342103039,-1.3379065,-1.385254939,-0.656958904,-0.472965537,-0.695454068,-0.722696051,-0.30022706,-0.713989911,-0.73127223,0.421593053,0.5855176,0.991278011,0.712753966,0.113256802,-0.274103942,-0.092537783,7.25E-05,-1.01E-05,0.000473656,-0.08532235,-0.483514335,-0.920175479,-1.134269294,-1.066135244,-1.196979734,-1.658834058,-2.071655086,-1.810258482,-1.349091603,-0.657098255,-0.176559932,0.234060386,-0.14940436,-0.00480294,-0.183800101,-0.100639423,0.490823844,0.847761188,0.528929319,0.524396067,0.898690713,0.352636606,-0.184157329,-0.073699346,0.000128504,-0.000204208,0.003168553,-0.134487244,-0.852861986,-1.440690082,-1.631199579,-1.477831174,-1.763592171,-2.029543674,-2.152298414,-1.209627442,-0.256016129,0.502419423,1.433570798,1.330180776,1.109120919,0.967903347,0.733200004,0.524205963,0.796062345,0.269681026,0.464810299,0.684058499,0.990790121,0.444693604,-0.135124743,-0.12995161,0.000327139,-0.000338651,-0.007093242,-0.232961061,-1.165743018,-1.709116142,-1.735988274,-1.496026653,-1.671991721,-1.148260755,-0.885227885,-0.184211507,1.193484624,1.853631698,1.765823738,1.781135508,1.188991658,0.94644628,0.315394077,0.02969438,-0.922900127,-0.926596622,-0.050874795,0.460195301,0.945044562,0.555144105,-0.143559647,-0.072936487,-0.001974522,-0.00033261,-0.034019358,-0.298333319,-1.294477022,-1.891208716,-1.329760661,-0.804815524,-0.536785845,-0.479094701,0.200730684,1.720045429,1.104750743,1.120779018,0.840652485,0.027212346,0.169228319,-0.219999063,-0.02688801,-0.510862962,-1.139731564,-0.70449219,-0.141780587,0.39850758,1.075890074,0.356114585,-0.189961558,-0.043870549,-0.000804105,0.00021072,-0.025139117,-0.305829871,-1.335192942,-1.541504424,-0.851108969,-0.622992575,-0.238628215,0.059605966,1.259562799,1.138623271,0.645602573,0.086289293,-0.508470777,-0.631643877,-0.741058418,-0.559249786,-0.379412572,-0.359981776,-0.285173592,-0.106484933,0.142259323,0.574930648,0.658411844,0.159462271,-0.213182596,-0.032701619,-0.000487657,6.79E-05,-0.003573387,-0.083104218,-1.259420762,-0.938239439,-0.888142255,-0.948707235,-0.549529468,0.323908131,0.974646439,0.649736368,-0.007891851,-0.277360247,0.006782702,-0.234602298,-0.661901465,-0.532282883,-0.310848158,-0.089027558,-0.083072083,-0.386458562,0.108088976,0.274796987,-0.073724945,-0.074055121,-0.093735235,-0.002409009,-0.000403702,0.000147898,0.012244518,0.203534209,-0.571207909,-0.366444747,-0.550957692,-1.105041108,-0.476726567,0.211983791,0.765427132,0.979692094,-0.291172186,-0.688116244,-0.33097087,-0.534053518,-0.161950079,-0.291333257,-0.197342303,-0.197927312,-0.257578083,-0.375791867,-0.569032818,-0.601500878,-0.458840234,-0.146749143,-0.030739943,-0.001817859,-0.000493261,0.000196693,0.010713357,0.393843589,0.211130319,-0.297860444,0.073656568,-0.759160049,-0.465257161,-0.015850453,0.599265336,0.449853809,-0.482743,-0.877183976,-0.90738086,-0.865658546,-0.036388434,0.233139399,0.417003022,-0.042990261,-0.350359093,-0.816879082,-0.75155687,-0.596642329,-0.346680769,-0.112006356,-0.013382597,-0.003088928,-0.000518925,0.000104159,0.016021513,0.386341682,0.596121423,0.25446882,0.271571647,-0.225685542,-0.253592285,-0.139282203,0.035220329,-0.106035053,-0.699245162,-0.6669774,-0.56895411,-0.593647943,-0.153774113,0.232769817,0.003102016,-0.591611605,-0.963255126,-1.123006849,-0.715683876,-0.448600543,-0.226286283,0.01003753,-0.007570893,-0.00174642,-0.000479913,-2.56E-05,0.021356554,0.264087785,0.483953617,0.494686412,0.768203909,1.105529964,0.810290733,0.305231514,0.11487826,-0.000774642,-0.521570085,-0.340381641,-0.46405293,-0.257646008,-0.13006083,-0.394555996,-0.437695073,-0.892537288,-0.851691128,-0.669846136,-0.370927841,-0.21998854,-0.074938257,-0.024932388,-0.004562815,-0.001182712,-0.000291462,-8.18E-07,0.031319936,0.283264736,0.435804675,0.785347034,0.613529491,1.044263302,1.110061126,0.455631122,-0.011933926,-0.076037953,0.112993496,0.29106855,-0.199234269,-0.40724163,-0.304623294,-0.614082811,-0.622675754,-0.75215531,-0.653314771,-0.502732513,-0.176427122,-0.000932173,-0.073333439,-0.020866946,-0.000579914,-0.000726364,0.000232288,-4.81E-05,0.01142961,0.201053128,0.369081104,0.635723879,0.538518674,0.732232096,0.315835554,-0.077579033,-0.230198999,0.039992974,0.163724442,0.145049178,-0.390333624,-0.551155544,-0.471125013,-0.533835822,-0.611729562,-0.770946178,-0.639220799,-0.349902244,-0.109645729,0.074823978,-0.042612981,-0.014676476,-0.000416274,-0.000473406,0.000103844,0.000191682,0.00073648,0.068300764,0.454473879,0.685585048,0.67377296,0.576331515,0.302435996,0.080241012,0.181647427,0.348230005,0.340011821,0.023296223,-0.34371222,-0.684046694,-0.512528156,-0.404603371,-0.423628987,-0.4847899,-0.386586842,-0.240983533,-0.112640256,-0.006710391,-0.011015443,-0.003038571,-2.29E-05,-0.00029942,-2.38E-05,9.59E-05,-6.26E-05,0.008523887,0.296614902,0.267914803,0.607296218,0.434311633,0.242089046,0.109739415,0.126813107,0.141615404,0.101324781,-0.083262704,-0.275748458,-0.379256061,-0.282365709,-0.222431138,-0.242715072,-0.232056775,-0.131341587,-0.07418974,-0.022737513,-0.016224143,-0.004304414,-0.000288181,0.000336685,0.000179339,-0.000149996,-0.00017427,-4.84E-05,-0.005681831,-0.051007106,-0.016559945,0.183650891,0.27197828,0.172387194,0.042286664,-0.060223105,-0.044481716,-0.037732807,-0.106451563,-0.223693145,-0.157895957,-0.164200165,-0.153219398,-0.1062911,-0.069896302,-0.030095216,-0.009623072,-0.007751626,0.005493131,-0.00049085,0.000840696,-8.44E-05,0.000218042,-0.000141381,0.000174623,-1.65E-05,0.00012322,-0.002158288,0.010667138,0.071702899,-0.016238438,-0.009907169,-0.015906778,-0.021248775,-0.019915636,-0.00538142,-0.038765017,-0.110988319,-0.063145912,-0.06713762,-0.055026459,-0.025500796,-0.004543114,-0.02943018,-0.002980371,-0.000340363,0.000281736,0.001282805,0.000285767,0.000260793,0.000266671,9.98E-05,-9.91E-05,-0.000295089,1.23E-06,-8.01E-05,0.026762559,0.035082387,0.023594828,0.015840522,-0.005653366,-0.033870349,-0.011165083,0.000360982,-2.31E-06,-0.005480963,-0.000980349,-0.003259744,-0.009198456,-0.002224071,-0.001893814,-0.004869664,-0.000194185,2.59E-06,3.51E-05,-0.000178864,0.000164021,0.000250201,0.000279761,-2.58E-05},
{0.000257495,2.04E-05,-1.81E-05,0.000122505,-0.000242714,-0.000171816,-9.15E-05,1.38E-05,-0.009053053,0.000188906,-0.000308445,4.68E-05,0.000161114,-0.000115903,-7.49E-05,0.000133085,0.000201165,5.47E-06,8.79E-05,5.53E-05,5.04E-05,-8.07E-05,5.70E-06,0.000185555,1.96E-05,9.56E-05,-0.00022762,0.0001866,-0.000273202,0.000220961,0.000224127,0.000266289,5.40E-05,-0.000292013,7.74E-05,-0.000536421,0.007007899,-0.002173913,-0.002433209,-0.001817643,-0.009180706,-0.017097436,-0.00762367,-0.000504231,0.000434949,-0.000243483,9.00E-06,-0.002456444,-0.006096591,3.86E-05,-9.15E-06,-7.50E-05,0.000220934,0.000283764,0.000307755,-0.000272757,-6.38E-05,-0.00011896,0.000254059,-0.003923814,-0.013636909,-0.001910041,-0.008223725,-6.37E-06,-0.003010203,-0.047161221,-0.05646861,-0.029933785,-0.026358815,-0.017998953,-0.015420328,-0.015880034,0.009283014,0.058650373,0.04281445,0.037002588,0.032097471,0.011007003,-0.000359039,-0.000560458,-0.000438735,0.000452198,0.000182311,-0.000182606,0.000252674,-8.27E-05,0.000207925,-0.000553746,-0.007394991,-0.015114896,-0.027723482,-0.059725553,-0.089658203,-0.119252667,-0.110435664,-0.242491077,-0.33848644,-0.250492222,-0.064358806,0.04872191,0.193158118,0.278848709,0.331010912,0.27836924,0.357816486,0.305982247,0.195437609,0.050979793,-0.058930094,-0.021638603,-0.00022497,-0.000237773,0.000136126,-9.58E-05,0.00015935,-0.00106821,-0.011477307,-0.057451578,-0.080734316,-0.18874372,-0.40390071,-0.524037661,-0.55288289,-0.630906851,-0.689148866,-0.591601855,-0.136911982,0.191798503,0.20919493,0.341393356,0.895056528,0.856129208,0.646072151,0.53847438,0.316515473,-0.039666415,-0.14043866,-0.051250042,-0.005318374,-0.000322416,-0.00026065,6.97E-05,0.000482874,0.007245446,-0.133874952,-0.191510741,-0.050229345,-0.316737159,-0.63085285,-0.82462139,-0.772787142,-0.77633175,-0.903197963,-0.731324638,-0.466561037,0.368935064,0.815547653,1.214285541,1.510097502,0.923715603,0.293742467,0.206821214,-0.066373394,-0.445716206,-0.426397905,-0.130574023,-0.014638698,-1.61E-05,0.000222059,0.000767007,-0.013941994,0.021113399,0.001023174,-0.016807104,-0.138402185,-0.586488506,-0.981226489,-1.01584534,-0.396940826,-0.073337386,-0.5219934,-0.460809992,-0.318916005,0.349041906,1.039871835,1.632372911,1.732311928,0.93128287,0.101999179,-0.287864592,-0.698269453,-0.943061329,-0.739316605,-0.19612553,-0.010509939,0.000372729,6.38E-05,0.001814981,-0.008342278,0.126863622,0.066602113,-0.12508144,-0.463126319,-0.932402327,-1.362430835,-0.995365699,-0.079669385,0.29885895,0.072555885,0.145325077,0.49766965,0.886964067,1.350740185,1.241664248,1.689226896,0.95337436,-0.081310734,-0.748818487,-1.227765444,-1.351606929,-0.87991287,-0.243027726,-0.025994062,0.003995876,-4.82E-06,0.005289685,0.063623485,0.293706962,0.116256404,-0.270104745,-0.937145952,-1.200776832,-1.4950611,-0.660908996,-0.083768881,0.283351486,0.398976656,0.446059479,1.013827171,1.303907891,1.340091559,1.262512017,1.304998693,0.519538224,-0.327883455,-1.530917219,-1.847771388,-1.448175711,-0.844875112,-0.282861949,-0.031504929,0.003660101,-0.000306026,0.009541111,0.222224204,0.429812256,0.180873225,-0.365954627,-1.42588123,-1.62502302,-1.376111377,-0.570019306,-0.30509267,-0.742242549,-0.190990741,0.04301786,0.958882718,1.169005542,1.2700808,2.021409884,1.444346649,0.236570238,-0.040482217,-1.32337577,-2.273226521,-1.721348937,-0.974434887,-0.344947496,-0.050263416,0.000141212,-0.000248668,0.012814342,0.256575176,0.535423572,0.201774729,-0.686549027,-1.700987235,-1.840810849,-1.04051165,-0.426270976,-0.434122841,-1.103250828,-0.349618736,0.637238491,1.524452494,1.342642531,1.404644552,1.962428994,1.683886922,0.605676856,-0.01383589,-1.070708304,-2.240342288,-1.727524417,-0.790040264,-0.410560478,-0.070152698,-0.01016788,0.00018039,0.012460331,0.137076504,0.586443837,0.314230437,-0.621395668,-1.501259823,-1.219340561,-0.724462172,-0.285521174,-0.08285234,-0.600567902,-0.32678284,1.323625918,2.069320784,1.285518912,1.023222863,1.733415514,1.866441098,1.390621534,0.17753898,-1.567985322,-1.93415734,-1.741267359,-0.704335018,-0.281442815,0.012601453,-0.003181009,0.000674732,0.011493036,0.130296772,0.417128724,0.295193213,-0.390106435,-0.588227663,-0.914727031,-0.504350021,0.314484118,0.350581681,-0.504775886,0.107101999,2.446011856,2.395101526,1.401144898,0.726365373,1.126364124,1.16901697,0.81426859,-0.569419296,-1.791607536,-1.760700921,-1.506839026,-0.515730599,-0.065227539,0.146623132,0.010760478,0.001732688,0.007345766,0.081905342,0.374263195,-0.179805981,-0.338775623,-0.560599157,-0.645564066,-0.401781925,0.208788688,-0.257583221,-0.502610157,0.039869229,1.843965033,1.276931042,0.713360307,0.567720327,0.636214164,0.798345654,0.325041781,-1.216342047,-1.950267471,-1.79312488,-0.606732215,-0.300621692,-0.037128586,0.161056453,0.005719547,0.000430225,-0.008784262,0.077186766,0.225600922,-0.255580252,0.359854418,-0.64754365,-0.900884093,-0.753141735,-0.113375685,-0.536450588,-0.453857319,0.483665309,0.976376965,0.234268478,-0.242487474,0.14608572,0.090768647,0.737680719,0.344894149,-1.118225844,-1.572215794,-1.204396797,-0.162016515,0.007316192,0.010766578,0.079271771,-0.00518113,-1.34E-05,0.007495953,0.026767394,-0.003837898,0.183325716,0.921143986,0.318945379,-1.020225866,-0.554624777,-0.87536164,-0.235069941,-0.502479382,0.230880753,0.756148236,0.91882608,1.018557038,0.568575994,-0.21223473,-0.01693579,0.057674866,-0.84534678,-1.444561344,-1.110103841,-0.438244908,-0.28485645,-0.081390969,0.080583958,-0.006424558,-9.15E-05,0.101144387,0.064731919,0.244582943,0.08332789,1.000184648,0.704395168,-0.512610546,-0.742008549,-1.212426158,-0.567412723,-0.749262736,0.221293818,0.428460521,1.04230026,0.633073189,-0.282018398,-0.235981332,0.094239809,0.308316815,-0.152935025,-0.836716513,-0.971275848,-0.927468953,-0.784221077,-0.284478132,-5.45E-05,-0.01125685,-0.000112554,0.040257848,0.148072545,0.213172152,0.194188201,0.915284726,0.29934963,-1.306766423,-1.310786441,-1.504906148,-1.421389722,-1.250273897,-1.138984202,-0.547113972,-0.306454232,0.02830334,0.053372795,-0.077819014,-0.065133886,0.306737291,0.022216406,-0.520688491,-0.742475154,-0.955760276,-0.808755834,-0.618051771,-0.098582148,-0.014686184,0.000167709,0.007559496,0.059972417,-0.045392727,0.154195638,0.430791847,-0.114235019,-1.097373612,-1.676775682,-1.450761246,-1.369625893,-1.644782995,-1.495008453,-0.951397996,-0.798651508,-0.542047482,0.106621419,0.368611362,0.355443298,0.093336948,-0.302199482,-0.512143507,-0.791450767,-0.961818415,-0.532061654,-0.565688683,-0.115977401,-0.035902788,-0.000124631,0.004471851,0.019299152,0.059255613,0.352777993,0.060786821,-0.676827254,-1.31140627,-1.200120391,-1.131461193,-0.848846433,-0.497641896,-0.598747116,-0.989635266,-1.306927268,-0.691515337,-0.148566062,0.238370859,0.607747378,0.053942681,0.044071296,-0.264535285,-0.664407716,-0.733169859,-0.130506219,-0.244932484,0.018002954,-0.014268728,5.37E-05,0.003885085,0.021549805,0.039465895,0.321479301,0.076267161,-0.524839551,-0.615600666,-0.548547244,-0.623692328,-0.280671376,0.185124819,-0.519490795,-1.05921937,-1.071830878,-1.012133164,-0.442282616,-0.076369833,0.332571538,0.279563833,0.005271788,-0.116846574,-0.269567616,-0.611969083,0.047756124,0.08904434,0.105729617,0.01547334,-0.000213331,0.001372265,-0.005437869,0.115135522,0.075032608,0.071270676,-0.03696764,0.095941804,-0.017782438,-0.223107958,0.101122455,-0.013269238,-0.412995842,-0.666668982,-0.779611244,-0.66527293,0.060642368,0.175188483,0.385103809,0.522810268,0.332350055,0.158235925,-0.203987603,-0.276229151,0.237668217,0.197390577,-0.072209323,-0.077942261,-4.41E-05,0.00164945,-0.007013729,0.02505338,-0.022276201,0.253315383,0.014902812,0.398628953,0.309088021,-0.211006251,-0.242680945,-0.281403452,-0.62015466,-0.4907864,-0.390020458,-0.372022236,0.561178294,0.539068627,0.756729013,0.961626422,0.767153856,0.468878091,0.301135818,0.234966301,0.391351626,0.26460069,-0.043514042,-0.065891432,0.000281841,0.000587321,-0.00263522,-0.059399227,0.069014347,-0.007221944,-0.31226601,-0.370005561,-0.286675356,-0.974300203,-0.409516689,-0.324969345,-0.584119965,-0.178574673,-0.127956137,0.114602131,0.891902631,0.752271572,1.329583492,1.594612503,1.245636471,0.788995919,0.498918276,0.340445079,0.329704032,0.351298319,0.003847541,-0.003038629,0.000249382,-0.000189749,0.001262918,-0.015928948,0.114690869,0.157596484,-0.098821025,-0.233059835,-0.405966559,-0.547194553,0.043381581,-0.092703713,-0.209079341,0.256094374,0.380643181,0.724582523,0.875081948,0.745516261,1.103579828,1.052144993,0.709144684,0.664702214,0.465470415,0.317919374,0.257482313,0.220228159,0.003753093,-0.000257251,0.000122349,0.000264151,0.000875809,0.011032869,0.048884232,0.113485421,-0.061183288,-0.032168622,-0.052304007,-0.087894839,0.367057985,0.175525559,0.148121805,0.279531518,0.364872688,0.565968849,0.766110712,0.56300871,0.567438894,0.412608297,0.231467698,0.12379827,0.040042726,0.017631379,0.024144131,0.008472277,-0.00016763,-0.000187038,-6.25E-05,0.000264343,-0.000138116,0.001346389,0.001587952,0.006586584,-0.002721636,0.017393842,0.030523006,0.141146314,0.033639854,-0.08862582,0.040402344,0.189741433,0.149426152,0.178174368,0.306013601,0.121556673,0.052020613,0.079643873,0.031619197,0.012773648,-0.00234351,0.002272003,0.009239091,0.010136494,5.16E-06,0.000174677,-0.000259513,-0.000160932,-0.00010708,0.000188494,0.001217533,0.002077708,-0.017534889,-0.008910842,-0.002741057,0.025183485,0.004018541,-0.00398166,0.015607844,0.05519798,0.004755173,0.022558099,0.021950153,0.020493878,0.02942067,0.002164294,-0.000135167,0.000142488,-0.00015597,0.000121187,0.000123445,0.000145838,-3.93E-07,-2.91E-05},
{8.24E-05,-9.30E-05,0.000122058,5.16E-05,-0.000238266,9.50E-05,-3.15E-05,-0.000187136,-0.013316767,0.001030685,0.001052703,-4.14E-05,8.05E-05,-0.00017798,-0.000275196,-6.61E-05,0.000202179,1.90E-05,0.004950641,0.00025556,2.51E-05,0.000120463,-0.000135782,0.000131684,8.33E-05,0.000290634,0.000190577,0.000184486,-0.000178344,-7.21E-05,6.05E-05,0.000276702,0.000169808,0.000204048,-0.000488803,0.004049291,0.003953683,0.005436799,-0.000785391,-0.021755439,0.00065976,0.000739487,0.000529079,2.71E-05,-0.00150997,-0.000265767,0.000230465,0.023569532,7.05E-05,3.71E-05,-9.45E-05,0.000132133,-0.000145982,9.37E-05,-2.42E-05,-4.26E-05,0.000212581,0.000209762,0.000204461,0.000112003,-1.33E-05,-0.001182364,0.001482645,0.007816989,-0.000963515,-0.002408797,0.03252489,0.02064001,0.052317192,0.052891782,0.009545604,-0.012717738,-0.028002308,-0.026511741,0.000995457,-0.002322931,-0.024059913,-0.021474818,-0.020554726,-0.028829909,-0.004079489,-0.000484669,0.000139796,-0.000245945,4.85E-05,-0.000202562,-0.001709248,-0.006477204,-0.000651157,-0.010962777,-0.027405812,0.010875682,0.008052672,-0.04605932,-0.035120719,0.078984527,0.172278813,0.112683761,0.001916371,0.011010352,-0.07154618,-0.103323473,-0.09683139,-0.110983842,-0.150600321,-0.127073565,-0.165825546,-0.145631649,-0.022589463,0.010278437,0.000796048,8.38E-05,0.000104377,0.000251557,-0.001147837,-0.002219283,-0.001495328,-0.008957718,-0.040718285,-0.173119351,-0.143739872,-0.155775015,-0.087683737,0.062027476,0.09285488,0.146118714,0.141550307,0.049025381,-0.105774802,-0.261271675,-0.307915571,-0.227237149,-0.423327242,-0.362902837,-0.288046755,-0.25977313,0.096387242,0.149378591,0.015062837,-0.000568601,0.000219771,-0.000314067,-0.000231284,-0.005890088,-0.006112544,0.034668297,0.01489034,-0.303702232,-0.138044509,-0.222314872,-0.322613135,-0.282865066,-0.243214415,-0.045022663,-0.018190938,-0.14436595,-0.169437202,-0.159261997,-0.267991092,-0.43487341,-0.684640967,-0.6585856,-0.532095911,-0.359568862,0.50954659,0.549508325,0.214225523,-0.000598738,0.000200911,-0.000618928,-0.001216724,-0.010237323,-0.016255601,0.038653413,-0.068430487,-0.468938741,-0.235797087,-0.194500289,-0.532991043,-0.578832895,-0.301830893,0.065097113,-0.049172962,-0.146476087,-0.297387453,-0.272107436,-0.304498192,-0.847607137,-1.321000674,-1.268735058,-0.441679441,-0.078513642,0.741403892,0.648335487,0.38097123,0.004677596,0.000280725,-0.002128888,-0.00436537,-0.017790719,-0.049193124,0.071151151,-0.05288707,-0.465214501,-0.23816743,-0.403308102,-1.039712894,-0.489080482,-0.10743591,0.235039093,0.438420271,0.195958503,-0.409955099,-0.122399313,-0.371413928,-0.960762319,-1.415130917,-1.152779594,-0.244288927,0.596696988,1.587202205,0.93703868,0.447602021,0.0243172,-0.000104929,-0.002012251,-0.007844733,-0.041604785,-0.097301232,0.391663019,0.27812781,-0.402383938,-0.169061625,-0.42736399,-0.694689619,0.354911337,0.49923306,0.200136216,0.288836958,-0.060030448,-0.064725814,0.06289131,-0.769898798,-1.291915804,-1.298377902,-0.764333877,0.450368633,0.662121445,1.552180443,1.288124222,0.549066762,0.027520872,7.66E-05,-0.002263257,-0.015350155,-0.065041373,-0.172826369,0.501684635,0.339027871,-0.003844659,0.076832629,-0.580195686,-0.431802018,0.167152464,0.248680244,0.614767544,0.185689624,-0.455729099,-0.198717205,-0.020758559,-0.995586994,-1.146671285,-1.148688123,-0.274246249,0.646316328,0.764389951,0.940317401,1.257219,0.758599426,0.016425445,0.000202037,-0.006704552,-0.06383248,-0.104772477,-0.272885786,0.473353961,0.890583994,0.598648884,0.177973121,-0.329669089,-0.079257228,0.428389693,0.32088765,0.620639359,-0.388532904,-0.577766804,-0.033903251,0.127098804,-0.77899494,-1.808284653,-1.5640976,-0.109808023,0.97552505,0.735545487,0.447605345,0.837964806,0.53070607,0.043800175,-0.000306548,-0.015507712,-0.079305169,-0.160816329,-0.318488093,0.36230066,1.373623002,0.494713089,0.815005029,-0.247632336,0.142299715,0.110602933,0.260673238,-0.289355734,-0.924440714,-0.788837976,-0.02691828,-0.068482561,-1.102722382,-1.504078925,-0.528613295,0.348308565,0.366500549,0.073416178,0.174785504,0.896272857,0.329386023,0.006362945,2.93E-05,-0.034424227,-0.085428862,-0.21774918,-0.398241666,0.293037345,0.919823149,0.499803411,0.207221981,-0.352286359,0.158265269,0.03047603,-0.600509736,-1.413464815,-1.020818231,-0.773292886,-0.401044815,-0.265243816,-0.781273294,0.230147531,1.651635776,1.295408295,0.459213869,-0.233168006,0.526555226,0.933526492,0.453976003,0.014792459,-0.000438209,-0.015797037,-0.097016404,-0.361710597,-0.590899533,-0.113900624,0.459383841,0.802903627,-0.085893247,0.422544119,0.123176463,-0.202904558,-0.45708414,-1.173092318,-0.424160436,-0.870670316,0.293237887,0.474678811,1.123214996,1.450791377,1.663555697,0.466518843,-0.569538501,-0.305967167,-0.057877243,0.631585929,0.361738857,0.024039953,-7.82E-05,-0.015277266,-0.099771349,-0.435710308,-0.971564494,-0.197471006,0.142309985,0.07144333,-0.295211903,-0.295086314,-0.893399548,-0.777227364,-0.450841313,0.131163244,0.736994995,1.070868391,0.861295676,0.64670485,0.287078435,0.151935048,-0.681879823,-1.517912898,-1.865990242,-1.174342284,-1.36986568,-0.715981101,0.113357239,0.005702944,0.000111665,-0.046413835,-0.117870251,-0.506611298,-1.047866391,-0.346483231,0.081359042,-0.640297361,-0.490278073,-0.49075944,-0.646042523,-0.708747094,0.745938378,1.359728641,1.189294255,1.354983428,0.770979296,0.268022533,-0.716127939,-1.681360171,-2.735585747,-2.912308199,-2.279810755,-2.31492502,-2.069660622,-1.158608199,0.058954294,0.001441471,7.19E-05,-0.087067728,-0.163674618,-0.398887373,-0.856272604,-0.849930053,-0.233480735,0.013277236,-0.248259342,-0.238070166,0.539824052,0.788325639,0.553803685,0.467811383,0.385899482,0.848929315,1.239230157,-0.006057882,-0.804573872,-1.881573235,-2.308637272,-2.181912747,-1.762262406,-1.93634885,-2.092825913,-1.139996335,0.017088939,0.001235157,-0.000227762,-0.037712574,-0.117289991,-0.002714234,-0.832060703,-1.093133267,-0.272838179,-0.173976927,-0.40658373,0.059938338,0.813089018,0.618220617,-0.853603725,-0.935058267,-0.092399878,1.649609855,0.438767849,-0.091533814,-0.815724198,-1.501602552,-1.611621191,-1.663676405,-1.496145704,-1.676233793,-1.667340716,-0.970036384,0.006482854,0.005117821,1.72E-05,-0.004768194,-0.056699076,0.23778618,-0.415118952,-0.688036717,0.100337837,-0.147727184,0.193124096,0.103567541,0.220436554,-0.907150593,-0.823528989,-0.009485957,0.856914893,1.085275806,-0.237813424,-0.022059626,-0.53102911,-1.184167024,-1.308813759,-1.331995427,-1.474455622,-1.232065028,-1.178640012,-0.63308275,0.01252993,0.012586257,-0.000191052,-0.005459011,-0.065091114,0.060830405,-0.228369406,-0.802994668,0.562638655,1.023654295,0.435561149,-0.187909039,-0.362825677,-0.229178413,0.380825865,0.611569084,1.04319289,0.145442113,-0.55925308,-0.091112587,-0.08596329,-0.754339634,-0.963213825,-0.981970732,-0.963428223,-0.909461198,-0.916459493,-0.425157043,0.000979068,0.002887287,0.000165115,-0.008600347,-0.041309925,0.034609469,-0.012967323,-0.835545045,0.488951201,0.647318923,-0.40531186,-0.550981374,-0.02577706,0.497245097,0.658673846,0.812828902,0.51882802,-0.108458547,-0.593108025,0.085034759,0.212074398,-0.41219475,-0.670392124,-0.65772654,-0.596755181,-0.5561099,-0.573786155,-0.200429556,-0.001485402,-0.000163432,4.50E-05,-0.051320355,-0.043526435,0.041255987,0.558059779,-0.263238617,0.536173014,0.363954275,0.029903522,0.079620014,0.416772266,0.96214903,0.832943413,0.462362055,-0.018706168,-0.091031788,-0.23695305,0.061116682,-0.21265109,-0.674690448,-0.521205328,-0.393161893,-0.266239538,-0.195678543,-0.241264511,-0.050240373,0.006275728,0.005532606,0.00028876,-0.063455421,-0.093145033,0.048887468,0.331783649,-0.19188728,0.099053867,0.060742086,0.034026982,-0.053986164,-0.031160455,0.208945758,0.151601255,-0.373488855,-0.385617738,-0.205796808,-0.393263273,-0.106540613,-0.377771542,-0.778533508,-0.445312391,-0.342107066,-0.237448832,-0.11820156,-0.071992794,0.005542584,0.006890999,0.004310234,-9.36E-05,-0.005992868,-0.034110633,0.017405146,0.188249968,-0.00524966,-0.246167621,0.018659914,-0.090148605,-0.410932599,-0.272388458,-0.182672798,-0.086877794,-0.104131563,-0.143934325,-0.216204634,-0.406909845,-0.032121579,-0.270727881,-0.803412973,-0.353627965,-0.1499014,-0.125753155,-0.148002327,-0.033688164,0.013735724,-0.004412724,-0.000120173,-0.000105783,-0.000171206,-0.002590341,-0.010505876,0.060012784,-0.004418543,-0.30675169,-0.269960449,-0.152252326,-0.433628487,-0.261552085,-0.129562007,-0.065098801,0.106931368,-0.281981292,-0.481604777,-0.605091271,0.127430015,-0.201179538,-0.400956286,-0.209049371,0.005383431,-0.012098749,-0.021616062,-0.036016818,0.000428297,0.000121778,0.000246848,0.000209083,-0.000111042,-0.001079692,-0.003719045,-0.002688897,-0.073825364,-0.387553474,-0.339562684,-0.192158972,-0.299412625,-0.145463454,-0.082638927,0.090476093,0.089401807,-0.137125035,-0.500812173,-0.518963338,0.012333315,0.055416137,-0.039340619,-0.040206297,-0.011618167,-0.002088746,0.002537655,-0.021917743,-0.001569939,-0.000128767,-1.62E-05,9.28E-05,-0.000126887,-0.00014875,-0.006928066,-0.002573781,-0.088924976,-0.079020607,-0.024808587,-0.079996547,-0.067268133,-0.076782551,-0.024866604,0.004221008,-0.000111156,-0.055875054,-0.09099313,-0.200003276,-0.072591735,0.048958049,-0.031525676,-0.01841896,-0.029482243,-0.003073598,-0.001535006,-0.002085006,-0.00216624,-0.000235595,0.000303701,-7.31E-05,5.11E-05,0.000161445,7.39E-05,-0.000871248,-0.001178318,-0.022631929,-0.013072755,-0.012690644,0.059322924,0.018043926,0.009454703,0.028662962,-0.002917543,-0.000468441,-0.000208089,-0.00797708,-0.021346513,-0.000891556,-0.000709707,0.000184382,8.65E-05,-0.00013856,-9.65E-05,-0.00026387,-5.20E-05,-8.92E-05,0.000127835},
{-0.000250695,0.000273457,0.000124512,0.000196463,8.77E-05,6.54E-05,0.000288736,-2.72E-05,0.005678341,-0.000145606,-0.000223699,-0.000156551,-0.000580763,0.00010896,0.001120312,0.000168668,-3.55E-05,0.00022407,-0.000387605,3.34E-05,0.000127971,-0.000149857,-0.000118554,0.000176536,-0.000302673,-0.000116467,1.54E-05,0.000282854,2.73E-05,-6.25E-05,9.64E-05,0.000251196,8.53E-05,-0.000146846,0.000235723,-0.007909644,-0.006975718,-0.006692863,-0.002723076,-0.002589813,-0.004139968,-0.001242782,-0.010428317,-0.021316631,-0.010438748,-0.004378249,-0.000290428,0.005244899,0.013342258,0.004968491,-7.62E-05,1.47E-05,0.000270304,7.95E-05,-4.14E-06,2.66E-05,-0.000287584,-0.000136207,0.000138699,5.17E-05,-0.000629499,-0.000699062,-0.005494882,0.002729706,-0.002054376,-0.030934367,-0.020968448,-0.027321203,-0.01785987,-0.010160046,-0.01209275,-0.026425238,-0.055724798,-0.061917745,-0.044231806,-0.006575451,0.012356684,0.00165175,0.010619309,0.0126806,-0.002358839,0.000475135,-5.66E-05,-0.000215755,-0.000279631,2.54E-06,0.000261871,0.000545949,-0.00843479,-0.023547155,0.030062592,0.002019736,-0.044078218,-0.159495223,-0.166441694,-0.084564777,0.023310894,0.022845893,-0.087631919,-0.147184817,-0.118097045,-0.141147992,-0.27795893,-0.309218434,-0.232259589,-0.119507029,-0.063729344,-0.0545471,-0.094130108,-0.008870071,-0.000459427,-0.000219606,3.69E-05,0.000144348,0.000898211,0.0054935,-0.020713465,-0.011150602,-0.057206354,-0.022856874,-0.070299667,-0.133142814,0.008059813,0.135177997,0.030680643,-0.23858131,-0.726750273,-0.72983306,-0.669934595,-0.414943223,-0.465562426,-0.234654443,0.1108578,0.200594688,0.001155647,-0.090552498,-0.319128837,-0.328937958,-0.009138124,-0.000237354,0.000239135,0.000255896,0.000726906,0.012764624,-0.022799331,-0.232924217,-0.348801155,-0.158838753,-0.141824683,0.098633803,0.052654888,0.182048614,0.13440834,-0.10737354,-0.241260547,-0.651182185,-0.513527767,-0.184398196,0.016082393,0.104352635,0.40851624,0.343849117,0.376239778,-0.027973624,-0.665987332,-0.553547828,-0.036929149,-0.000141669,-1.24E-05,0.000259121,0.005194413,0.033117994,-0.061580514,-0.416891854,-0.672599176,-0.221060193,0.515311279,0.476974198,0.205800204,0.081184209,0.656892637,0.304501242,0.096354583,-0.370678105,-0.649006549,-0.062599095,0.296444572,0.498233361,0.656396285,1.091512299,0.805661641,-0.379485608,-0.675227504,-0.174001072,-0.063160428,-0.000768257,2.64E-05,0.001153769,0.019097227,0.114050713,0.136037637,-0.338764715,-0.393414851,0.101534958,0.680514382,-0.124164736,-0.141378498,0.701903493,0.927737499,0.270190963,-0.311063275,-0.393691485,-0.521930016,-0.681062426,-0.23557416,0.202664182,1.160987256,1.587065112,0.981757237,-0.34198487,-0.834384066,0.063837631,-0.070887886,-0.000709618,8.78E-05,0.001916392,0.055397675,0.293296497,0.170013775,-0.595789667,-0.329214091,0.597866841,0.3142877,-0.305488455,0.465718094,0.743121315,0.530674614,0.31386678,-0.442803352,-0.431667639,-1.241349606,-1.435349583,-0.927042951,-0.238225074,1.397659976,2.159273741,1.870067456,1.140766076,0.205705515,0.046910006,-0.125466704,-0.001707271,-0.000177644,0.004116031,0.056316588,0.197345818,0.415861331,-0.302871716,-0.077480823,-0.284507258,0.067459583,-0.10139196,0.026121198,0.436673455,0.484035281,-0.15574369,-0.690256182,-0.587502198,-1.129607495,-1.516274718,-1.103296404,-0.169260931,1.7937521,3.137621694,2.702615709,1.903400158,1.211857587,0.503075755,-0.207568397,-0.002105532,0.000115985,0.008384559,0.050642904,0.152760825,0.285247051,0.367806205,0.316449571,0.338251921,0.325116283,-0.375806608,0.40451898,0.626878633,-0.72928543,-0.532104669,-0.218873264,-0.653489788,-0.613669089,-1.179259696,-1.307655821,-0.106640592,2.084251547,3.291102827,2.588748654,1.17523656,0.712265759,0.252889148,-0.099655056,-0.010367292,0.000253305,0.015183579,0.112460504,0.215798253,0.173628257,0.803708183,0.374471007,1.056136724,-0.638595654,-0.699506752,-0.553378986,-0.774135809,-0.331272682,0.328330505,1.066535608,0.011311333,-0.354079562,-1.015211241,-1.629191706,-0.83053248,1.591820089,3.571309743,2.419243497,1.403454794,0.649012911,-0.332368231,0.014724845,-0.002264617,0.000297428,0.025988996,0.145204754,0.254113194,0.31231331,0.677693694,0.388770221,0.29974991,-0.035256591,-0.794833099,-0.979602214,-0.904502409,-0.349579953,0.344364646,0.223936431,0.044932361,-0.400833626,-0.027579216,-0.318895562,0.788038185,2.815744294,3.964803066,2.572241303,1.36978796,1.096362934,-0.370407436,-0.060269185,-0.006199517,0.001145281,0.016301496,0.091904104,0.414716379,0.594769447,1.362104909,0.864938859,0.805141791,0.036058874,-1.08023465,-1.029231834,0.192083918,-0.043600206,-0.398516206,-0.506726023,0.290832053,0.407314943,0.481508765,-0.821316059,0.371309252,2.55785606,3.876988151,2.870604895,0.692807389,-0.03984232,-0.614050254,-0.162682842,-0.01346261,0.000267415,-0.030640952,0.178768071,0.360905735,1.143011916,1.642277838,1.16771278,1.091089382,0.374768492,-0.560747144,0.471659707,0.241434953,-0.899153214,-1.126369089,0.218585388,-0.079678172,-0.585679187,-1.027616181,-2.394579747,-1.24894262,1.066465835,3.753998656,3.349695394,0.505393417,-0.108238509,-0.589373185,-0.281119119,-0.018578315,0.000238045,-0.061867931,0.140555288,0.313986891,1.598678739,1.650110563,1.253567591,2.13704076,0.467008486,0.022303617,0.186962912,-0.238167593,-0.638589996,-0.345897272,-0.66515835,-0.918818602,-1.648091716,-2.825731757,-2.833501497,-2.031630178,0.806245661,2.804208059,2.125780425,1.306626591,1.315199761,0.412726224,-0.153728451,-0.012327459,0.000272042,0.045493003,0.320055481,0.529309988,1.557768871,1.420325182,0.41709586,0.872746158,0.842321659,0.134865375,0.303098491,-0.355019309,0.051276493,-0.594121438,-0.932708603,-0.481316602,-1.029754055,-1.28242728,-2.464277722,-2.319213284,-0.63602327,0.659647905,1.621273801,1.705746262,1.505353062,0.793718374,0.155464422,-0.002931711,-0.000259788,0.034895453,0.391827407,0.379830185,1.26100941,1.57303164,-0.271637851,-1.194673754,-1.058280952,-1.10014908,-0.529644792,-0.994746477,0.125552156,-0.857877775,-1.238611285,-1.278090817,-0.730839116,-1.222413098,-2.125502188,-0.458488066,0.349706863,2.395635604,1.950925805,1.525589025,1.200871876,0.651572379,0.149828922,-0.008467297,-6.99E-05,0.018261052,0.310556487,0.402814297,0.994804655,1.998328726,0.262463097,-0.361100342,-1.309786069,-2.253234447,-0.605212683,0.087684034,-0.148938672,-0.317193199,-0.905719682,-1.284272735,-1.695460035,-2.129674699,-1.281392553,0.2208372,0.835619394,1.896844525,1.978825194,1.811677938,1.139783963,0.21595349,-0.002604518,-0.014155105,0.000136679,0.014494095,0.19418816,0.526498182,0.756091095,1.807369868,0.805732746,-0.091554315,-0.657716946,-0.84869198,-0.43068035,-0.445516257,-0.456931392,-0.339804236,-1.310204099,-1.626724936,-1.614074821,-1.253125966,-1.111271975,0.295173126,0.974522489,1.532671017,1.665436829,1.230918476,0.306058299,-0.10098785,-0.142477,-0.006197572,0.000124054,0.011809177,0.115257237,0.20136647,0.167265821,1.268916493,0.334168436,-0.047826325,0.186748571,0.11035872,-0.712690522,-1.167787977,-0.986112195,-1.042029649,-1.542986079,-1.658382439,-1.630611049,-0.92964988,-0.236315863,0.29695993,1.258211966,1.742409271,1.18968147,0.747796919,-0.119196125,-0.311473887,-0.12909942,-0.001433584,4.55E-05,0.015285239,0.11973335,0.11810679,-0.295920415,0.988353528,0.783328668,0.589789289,0.122651787,-0.151454532,-0.352320663,-0.586096616,-0.352405989,-0.614998591,-0.911880838,-1.234722062,-1.008111315,-0.804299525,-0.139699002,0.389758932,1.23371786,1.263226361,1.000176632,0.277845267,-0.395827473,-0.438466908,-0.086987203,-0.002857005,-0.000200732,0.013067509,0.099283355,0.132430627,-0.479079761,0.14869397,0.469378275,0.393211974,0.220927802,0.471480453,0.58968871,0.195517549,0.12891885,0.018720329,-0.513334281,-0.687492441,-0.326397789,-0.087738093,0.359403923,1.134457283,1.317009227,1.063511775,0.51976929,0.01119346,-0.428044402,-0.323163574,-0.048068671,-0.003842969,-0.000243857,0.001628955,0.030281171,0.170265774,-0.198245929,-0.362492118,0.290700373,0.349822174,0.551949206,1.293766774,1.509707636,1.054555726,0.840093073,0.311551421,0.044756215,0.252743193,0.561362139,0.439112664,0.933577627,1.07031828,0.75045717,0.419419647,0.152101048,0.087139168,-0.143150205,-0.097042064,-0.000784982,-0.000254621,0.000185384,0.000117958,-0.016027744,0.111480906,-0.172559543,-0.270577572,-0.088880833,0.047170862,0.307036477,0.518277395,0.435799641,0.918597917,0.868798728,0.273267789,0.373006014,0.383936237,0.405233384,0.450148189,0.466747233,0.219873055,-0.052098362,-0.076025877,-0.13349267,-0.121377749,0.033299129,-0.010692722,-3.54E-05,0.000264408,-5.64E-05,-0.000209745,-0.014079741,0.006844613,0.008148441,0.077001834,0.093916341,0.056463801,-0.086173044,-0.063891952,-0.184563314,0.227698226,-0.002946175,-0.18852778,-0.065280439,0.038932033,0.021924333,-0.06016814,-0.020160125,-0.068862863,-0.036708311,-0.028602266,-0.049745289,-0.02814115,0.015305451,0.001791751,8.02E-06,0.000227381,-5.42E-05,0.000299179,-0.000254643,0.010622614,0.040972695,0.056245238,-0.062265316,-0.160463249,-0.004910357,-0.045940388,-0.068746367,0.115776545,-0.064168797,-0.157180803,-0.033890442,-0.056737996,-0.025026766,-0.086178946,-0.038908521,-0.004796399,0.003528543,0.022670905,-0.002633804,-0.004067196,0.004312948,0.004680663,0.000272145,-0.00017907,0.0002135,-0.00018218,0.000212017,-0.000171028,0.015407856,0.012397754,0.00018865,-0.003098079,0.013055292,-0.225667036,-0.066770327,0.003199638,-0.002700341,0.004304484,0.000739732,-0.000443279,-0.004591941,0.001237468,-0.003851769,-0.002697545,0.000161418,-0.000280723,-0.000276667,-0.000230546,-0.000191269,0.000202847,0.000308078,0.000264166},
